tree
version=v3
num_class=3
num_tree_per_iteration=3
label_index=0
max_feature_idx=3
objective=multiclass num_class:3
feature_names=Column_0 Column_1 Column_2 Column_3
feature_infos=[4.4000000000000004:7.9000000000000004] [2:4.4000000000000004] [1:6.9000000000000004] [0.10000000000000001:2.5]
tree_sizes=616 1268 1089 717 1321 1118 531 1313 1022 524 1538 1026 432 2065 1236 740 1221 1237 1053 1753 1243 744 1752 1227 432 1437 1449 740 1445 1133 943 2083 1558 533 2501 1243 845 1334 1240 534 1228 1564 639 1654 1138 1891 1964 1879 738 1443 1244 839 1865 1664 432 1128 1247 1344 1421 1437 847 1341 1035 851 1026 1777 847 1346 1457 1064 1669 1669 536 1238 1042 744 1132 1467 643 1457 1154 641 1983 1769 2234 1761 1361 1266 2088 1356 433 1246 1570 1162 1457 1997

Tree=0
num_leaves=5
num_cat=0
split_feature=2 3 0 1
split_gain=57.8049 2.19512 7.10543e-15 3.55271e-15
threshold=3.1500000000000004 1.0500000000000003 5.0500000000000007 3.5500000000000003
decision_type=2 2 2 2
left_child=1 2 3 -1
right_child=-2 -3 -4 -5
leaf_value=-0.94861228531534858 -1.1736122903444903 -1.1736122903444903 -0.94861228531534847 -0.9486122853153488
leaf_weight=8.8888889551162755 35.111111372709274 0.4444444477558126 8.000000059604643 0.88888889551162786
leaf_count=20 79 1 18 2
internal_value=0 1.44512 1.5 1.5
internal_weight=0 18.2222 17.7778 9.77778
internal_count=120 41 40 22
shrinkage=1


Tree=1
num_leaves=12
num_cat=0
split_feature=3 2 3 2 1 0 3 1 0 0 1
split_gain=14.4444 33.3948 5.97928 2.19231 1.8 0.389189 0.675 1.125 7.10543e-15 1.77636e-15 8.88178e-16
threshold=0.45000000000000007 4.9500000000000011 1.6500000000000001 1.8 3.1500000000000008 6.0500000000000007 1.6500000000000001 2.6500000000000008 6.2500000000000009 7.8000000000000016 3.3500000000000001
decision_type=2 2 2 2 2 2 2 2 2 2 2
left_child=-1 2 3 -2 -4 6 7 -3 -5 10 -7
right_child=1 5 4 8 -6 9 -8 -9 -10 -11 -12
leaf_value=-1.1736122903444903 -1.1736122903444892 -1.1736122903444897 -1.1736122903444903 -0.94861228531534858 -0.9486122853153488 -1.1736122903444905 -1.1736122903444903 -0.94861228531534891 -0.94861228531534847 -1.1736122903444901 -1.1736122903444903
leaf_weight=17.33333346247673 0.4444444477558197 0.4444444477558166 1.7777777910232537 11.555555641651155 0.44444444775581354 12.888888984918589 1.3333333432674406 0.4444444477558136 5.3333333730697623 0.44444444775581438 0.88888889551162786
leaf_count=39 1 1 4 26 1 29 3 1 12 1 2
internal_value=0 0.361111 1.24432 1.44231 -0.3 -0.689189 -0.3 0.375 1.5 -0.75 -0.75
internal_weight=0 36 19.5556 17.3333 2.22222 16.4444 2.22222 0.888889 16.8889 14.2222 13.7778
internal_count=120 81 44 39 5 37 5 2 38 32 31
shrinkage=1


Tree=2
num_leaves=10
num_cat=0
split_feature=2 3 3 2 1 0 1 0 1
split_gain=49.3578 2.88608 2.39895 2.05714 1.5 0.675 1.125 7.10543e-15 7.10543e-15
threshold=4.8500000000000005 1.6500000000000001 1.6500000000000001 4.9500000000000011 3.1500000000000008 6.0500000000000007 2.6500000000000008 7.8000000000000016 3.7500000000000004
decision_type=2 2 2 2 2 2 2 2 2
left_child=1 -1 3 -2 -3 6 -5 8 -4
right_child=2 4 7 5 -6 -7 -8 -9 -10
leaf_value=-1.1736122903444903 -1.1736122903444901 -0.94861228531534847 -0.94861228531534847 -0.94861228531534891 -1.1736122903444903 -0.94861228531534869 -1.1736122903444903 -0.94861228531534914 -0.94861228531534914
leaf_weight=33.777778029441833 0.88888889551163019 0.88888889551162609 14.22222232818603 0.44444444775581393 0.4444444477558136 1.3333333432674406 0.4444444477558136 0.44444444775581438 0.44444444775581438
leaf_count=76 2 2 32 1 1 3 1 1 1
internal_value=0 -0.693038 1.33537 0.535714 0.75 1.05 0.375 1.5 1.5
internal_weight=0 35.1111 18.2222 3.11111 1.33333 2.22222 0.888889 15.1111 14.6667
internal_count=120 79 41 7 3 5 2 34 33
shrinkage=1


Tree=3
num_leaves=6
num_cat=0
split_feature=2 3 0 0 2
split_gain=47.9997 1.70035 7.10543e-15 3.55271e-15 3.55271e-15
threshold=3.1500000000000004 1.0500000000000003 5.0500000000000007 4.9500000000000011 1.8
decision_type=2 2 2 2 2
left_child=1 2 4 -2 -1
right_child=3 -3 -4 -5 -6
leaf_value=0.12985161996930494 -0.072199305178049886 -0.072199305178049886 0.12985161996930503 -0.072199305178049886 0.12985161996930455
leaf_weight=9.94507992267609 0.85173273086547741 0.42586636543273831 8.5243542194366437 32.791710138320923 0.47357523441314775
leaf_count=21 2 1 18 77 1
internal_value=0 1.25409 1.29852 -0.721993 1.29852
internal_weight=0 19.3689 18.943 33.6434 10.4187
internal_count=120 41 40 79 22
shrinkage=0.1


Tree=4
num_leaves=12
num_cat=0
split_feature=3 2 3 2 1 0 0 1 0 0 0
split_gain=12.6077 27.4226 4.58313 1.69839 1.51279 0.362634 0.597386 0.9154 1.77636e-15 1.77636e-15 8.88178e-16
threshold=0.45000000000000007 4.9500000000000011 1.6500000000000001 1.8 3.1500000000000008 6.0500000000000007 5.9500000000000011 2.6500000000000008 5.6500000000000012 5.1500000000000012 4.6500000000000012
decision_type=2 2 2 2 2 2 2 2 2 2 2
left_child=8 2 3 -2 -4 6 -3 -8 9 10 -1
right_child=1 5 4 -5 -6 -7 7 -9 -10 -11 -12
leaf_value=-0.072199305178049886 -0.072199305178048664 -0.072199305178049844 -0.072199305178049858 0.12985161996930503 0.1298516199693048 -0.072199305178049886 -0.072199305178049719 0.12985161996930475 -0.072199305178049719 -0.07219930517804983 -0.072199305178049886
leaf_weight=2.5551981925964347 0.42586636543274536 1.2775990962982171 1.7034654617309564 17.995858907699585 0.47357523441314686 13.627723693847654 0.4258663654327392 0.47357523441314697 0.8517327308654794 3.406930923461915 9.7949264049530012
leaf_count=6 1 3 4 38 1 32 1 1 2 8 23
internal_value=0 0.329403 1.08965 1.25181 -0.282468 -0.66145 -0.282468 0.341848 -0.721993 -0.721993 -0.721993
internal_weight=0 36.4035 20.5988 18.4217 2.17704 15.8048 2.17704 0.899442 16.6088 15.7571 12.3501
internal_count=120 81 44 39 5 37 5 2 39 37 29
shrinkage=0.1


Tree=5
num_leaves=10
num_cat=0
split_feature=2 3 3 2 1 0 1 0 0
split_gain=41.0719 2.55882 1.75509 1.69545 1.19933 0.504065 0.9154 3.55271e-15 3.55271e-15
threshold=4.8500000000000005 1.6500000000000001 1.6500000000000001 4.9500000000000011 3.1500000000000008 6.0500000000000007 2.6500000000000008 7.8000000000000016 6.5500000000000007
decision_type=2 2 2 2 2 2 2 2 2
left_child=1 -1 3 -2 -3 6 -5 8 -4
right_child=2 4 7 5 -6 -7 -8 -9 -10
leaf_value=-0.072199305178049886 -0.072199305178049539 0.12985161996930503 0.12985161996930503 0.12985161996930467 -0.072199305178049705 0.12985161996930494 -0.072199305178049705 0.12985161996930455 0.129851619969305
leaf_weight=32.365843772888184 0.8517327308654814 0.94715046882629284 8.0507789850234968 0.47357523441314731 0.42586636543273926 1.4207257032394407 0.42586636543273926 0.47357523441314775 7.5772037506103525
leaf_count=76 2 2 17 1 1 3 1 1 16
internal_value=0 -0.665271 1.16458 0.484682 0.671818 0.927652 0.341848 1.29852 1.29852
internal_weight=0 33.7389 19.2735 3.1719 1.37302 2.32017 0.899442 16.1016 15.628
internal_count=120 79 41 7 3 5 2 34 33
shrinkage=0.1


Tree=6
num_leaves=4
num_cat=0
split_feature=2 3 0
split_gain=40.5297 1.36079 1.77636e-15
threshold=3.1500000000000004 1.0500000000000003 7.2500000000000009
decision_type=2 2 2
left_child=1 -1 -2
right_child=2 -3 -4
leaf_value=0.11524302888568881 -0.069741536176961119 -0.069741536176961119 -0.069741536176961119
leaf_weight=19.650100469589237 29.629259884357452 0.40588027238845725 2.4352816343307486
leaf_count=40 73 1 6
internal_value=0 1.11499 -0.697415
internal_weight=0 20.056 32.0645
internal_count=120 41 79
shrinkage=0.1


Tree=7
num_leaves=12
num_cat=0
split_feature=3 2 3 2 1 0 0 1 1 1 1
split_gain=11.0574 22.9274 3.62946 1.35934 1.29054 0.335817 0.530004 0.760531 3.55271e-15 1.77636e-15 4.44089e-16
threshold=0.45000000000000007 4.9500000000000011 1.6500000000000001 1.8 3.1500000000000008 6.0500000000000007 5.9500000000000011 2.6500000000000008 2.7500000000000004 3.0500000000000003 3.1500000000000008
decision_type=2 2 2 2 2 2 2 2 2 2 2
left_child=-1 2 3 -2 -4 6 -3 -8 -5 -10 -11
right_child=1 5 4 8 -6 -7 7 -9 9 10 -12
leaf_value=-0.069741536176961119 -0.069741536176959898 -0.069741536176961091 -0.069741536176961105 0.11524302888568878 0.11524302888568863 -0.069741536176961119 -0.06974153617696098 0.11524302888568859 0.11524302888568885 0.11524302888568867 0.11524302888568877
leaf_weight=15.82933062314987 0.40588027238846441 1.2176408171653741 1.6235210895538323 8.351292699575426 0.49125251173973072 12.988168716430662 0.40588027238845809 0.49125251173973078 7.8600401878356916 0.982505023479462 1.4737575352191923
leaf_count=39 1 3 4 17 1 32 1 1 16 2 3
internal_value=0 0.304196 0.975253 1.11307 -0.267704 -0.637246 -0.267704 0.315524 1.15243 1.15243 1.15243
internal_weight=0 36.2912 21.1882 19.0735 2.11477 15.1029 2.11477 0.897133 18.6676 10.3163 2.45626
internal_count=120 81 44 39 5 37 5 2 38 21 5
shrinkage=0.1


Tree=8
num_leaves=9
num_cat=0
split_feature=2 3 3 2 1 0 1 0
split_gain=34.7193 2.27672 1.33898 1.42144 0.982865 0.390593 0.760531 3.55271e-15
threshold=4.8500000000000005 1.6500000000000001 1.6500000000000001 4.9500000000000011 3.1500000000000008 6.0500000000000007 2.6500000000000008 6.4500000000000011
decision_type=2 2 2 2 2 2 2 2
left_child=1 -1 3 -2 -3 6 -5 -4
right_child=2 4 7 5 -6 -7 -8 -9
leaf_value=-0.069741536176961119 -0.069741536176960772 0.11524302888568885 0.11524302888568877 0.11524302888568852 -0.069741536176960953 0.11524302888568877 -0.069741536176960953 0.11524302888568883
leaf_weight=30.846900701522827 0.8117605447769195 0.98250502347946045 6.3862826526165035 0.49125251173973122 0.40588027238845831 1.4737575352191923 0.40588027238845831 10.316302746534346
leaf_count=76 2 2 13 1 1 3 1 21
internal_value=0 -0.641034 1.03916 0.444703 0.611647 0.835749 0.315524 1.15243
internal_weight=0 32.2353 19.8852 3.18265 1.38839 2.37089 0.897133 16.7026
internal_count=120 79 41 7 3 5 2 34
shrinkage=0.1


Tree=9
num_leaves=4
num_cat=0
split_feature=2 3 0
split_gain=34.639 1.11469 3.55271e-15
threshold=3.1500000000000004 1.0500000000000003 5.1500000000000012
decision_type=2 2 2
left_child=1 2 -1
right_child=-2 -3 -4
leaf_value=0.10422460742614872 -0.06757975082459472 -0.06757975082459472 0.10422460742614877
leaf_weight=14.975354969501501 30.409315764904022 0.384928047657012 4.9917849898338309
leaf_count=30 79 1 10
internal_value=0 1.00975 1.04225
internal_weight=0 20.3521 19.9671
internal_count=120 41 40
shrinkage=0.1


Tree=10
num_leaves=14
num_cat=0
split_feature=3 2 3 2 1 0 0 1 0 2 0 1 0
split_gain=9.73519 19.4265 2.94355 1.11358 1.11268 0.309503 0.471175 0.641504 3.55271e-15 1.77636e-15 8.88178e-16 8.88178e-16 1.11022e-16
threshold=0.45000000000000007 4.9500000000000011 1.6500000000000001 1.8 3.1500000000000008 6.0500000000000007 5.9500000000000011 2.6500000000000008 5.7500000000000009 4.8500000000000005 7.8000000000000016 4.3000000000000016 6.1500000000000012
decision_type=2 2 2 2 2 2 2 2 2 2 2 2 2
left_child=11 2 3 -2 12 6 -3 -8 -5 -10 -7 -1 -4
right_child=1 5 4 8 -6 10 7 -9 9 -11 -12 -13 -14
leaf_value=-0.067579750824594734 -0.067579750824593471 -0.067579750824594692 -0.067579750824594692 0.10422460742614872 0.10422460742614857 -0.067579750824594734 -0.067579750824594567 0.10422460742614854 0.10422460742614879 0.10422460742614857 -0.067579750824594415 -0.067579750824594415 -0.067579750824594637
leaf_weight=14.627265810966488 0.3849280476570191 1.1547841429710382 0.76985609531402532 7.4876774847507503 0.49917849898338312 11.932769477367398 0.38492804765701277 0.49917849898338318 10.482748478651043 0.99835699796676725 0.38492804765701366 0.38492804765701366 0.76985609531402588
leaf_count=38 1 3 2 15 1 31 1 1 21 2 1 1 2
internal_value=0 0.283788 0.887678 1.00808 -0.255172 -0.616061 -0.255172 0.294233 1.04225 1.04225 -0.675798 -0.675798 -0.675798
internal_weight=0 35.7492 21.3926 19.3537 2.03889 14.3566 2.03889 0.884107 18.9688 11.4811 12.3177 15.0122 1.53971
internal_count=120 81 44 39 5 37 5 2 38 23 32 39 4
shrinkage=0.1


Tree=11
num_leaves=9
num_cat=0
split_feature=2 3 3 2 1 0 1 0
split_gain=29.6899 2.03078 1.05337 1.20702 0.820016 0.311045 0.641504 1.77636e-15
threshold=4.8500000000000005 1.6500000000000001 1.6500000000000001 4.9500000000000011 3.1500000000000008 6.0500000000000007 2.6500000000000008 6.0500000000000007
decision_type=2 2 2 2 2 2 2 2
left_child=1 7 3 -2 -3 6 -5 -1
right_child=2 4 -4 5 -6 -7 -8 -9
leaf_value=-0.067579750824594706 -0.067579750824594373 0.10422460742614877 0.10422460742614877 0.10422460742614847 -0.067579750824594539 0.1042246074261487 -0.067579750824594539 -0.06757975082459472
leaf_weight=23.480610907077796 0.76985609531402877 0.99835699796676514 16.972068965435028 0.49917849898338351 0.38492804765701294 1.4975354969501493 0.38492804765701294 5.7739207148551932
leaf_count=61 2 2 34 1 1 3 1 15
internal_value=0 -0.619814 0.943657 0.412714 0.564164 0.764571 0.294233 -0.675798
internal_weight=0 30.6378 20.1236 3.1515 1.38329 2.38164 0.884107 29.2545
internal_count=120 79 41 7 3 5 2 76
shrinkage=0.1


Tree=12
num_leaves=3
num_cat=0
split_feature=2 3
split_gain=29.8766 0.929068
threshold=3.1500000000000004 1.0500000000000003
decision_type=2 2
left_child=1 -1
right_child=-2 -3
leaf_value=0.095664921275841905 -0.065674645918823313 -0.065674645918823313
leaf_weight=19.958930015563968 28.709745198488235 0.36341449618339439
leaf_count=40 79 1
internal_value=0 0.927798
internal_weight=0 20.3223
internal_count=120 41
shrinkage=0.1


Tree=13
num_leaves=19
num_cat=0
split_feature=3 2 3 1 2 0 0 1 0 0 0 0 0 2 0 0 0 0
split_gain=8.59862 16.6299 2.43085 0.966943 0.928194 0.284189 0.419601 0.547342 3.55271e-15 3.55271e-15 1.77636e-15 1.77636e-15 1.77636e-15 1.77636e-15 8.88178e-16 4.44089e-16 4.44089e-16 1.11022e-16
threshold=0.45000000000000007 4.9500000000000011 1.6500000000000001 3.1500000000000008 1.8 6.0500000000000007 5.9500000000000011 2.6500000000000008 6.9500000000000011 6.7500000000000009 4.6500000000000012 6.5500000000000007 6.2500000000000009 4.6500000000000012 6.4500000000000011 7.2500000000000009 6.9500000000000011 5.8500000000000005
decision_type=2 2 2 2 2 2 2 2 2 2 2 2 2 2 2 2 2 2
left_child=10 2 4 -4 -2 6 17 -8 9 11 -1 12 13 -6 -7 16 -16 -3
right_child=1 5 3 -5 8 14 7 -9 -10 -11 -12 -13 -14 -15 15 -17 -18 -19
leaf_value=-0.065674645918823313 -0.065674645918822036 -0.065674645918823327 -0.065674645918823313 0.095664921275841752 0.095664921275841877 -0.065674645918823341 -0.06567464591882316 0.095664921275841724 0.095664921275841919 0.095664921275841919 -0.065674645918823313 0.095664921275841808 0.095664921275841863 0.095664921275841586 -0.065674645918823313 -0.065674645918823299 -0.065674645918823271 -0.065674645918823146
leaf_weight=2.1804869771003714 0.36341449618340155 0.72682899236678955 1.4536579847335804 0.49897325038909907 12.474331259727482 3.6341449618339521 0.36341449618339527 0.49897325038909912 0.49897325038909807 0.99794650077819713 11.992678374052046 1.496919751167298 2.9938395023345956 0.4989732503890999 4.72438845038414 2.1804869771003723 1.0902434885501859 0.36341449618339539
leaf_count=6 1 2 4 1 25 10 1 1 1 2 33 3 6 1 13 6 3 1
internal_value=0 0.267024 0.818864 -0.244461 0.926308 -0.597473 -0.244461 0.276756 0.956649 0.956649 -0.656746 0.956649 0.956649 0.956649 -0.656746 -0.656746 -0.656746 -0.656746
internal_weight=0 34.8589 21.277 1.95263 19.3244 13.5819 1.95263 0.862388 18.961 18.462 14.1732 17.4641 15.9671 12.9733 11.6293 7.99512 5.81463 1.09024
internal_count=120 81 44 5 39 37 5 2 38 37 39 35 32 26 32 22 16 3
shrinkage=0.1


Tree=14
num_leaves=11
num_cat=0
split_feature=2 3 3 2 1 0 1 0 0 0
split_gain=25.6138 1.81479 0.84826 1.03512 0.693455 0.252928 0.547342 1.77636e-15 8.88178e-16 8.88178e-16
threshold=4.8500000000000005 1.6500000000000001 1.6500000000000001 4.9500000000000011 3.1500000000000008 6.0500000000000007 2.6500000000000008 6.5500000000000007 7.2500000000000009 6.7500000000000009
decision_type=2 2 2 2 2 2 2 2 2 2
left_child=1 -1 3 -2 -3 6 -5 -4 9 -9
right_child=2 4 7 5 -6 -7 -8 8 -10 -11
leaf_value=-0.065674645918823313 -0.065674645918822966 0.095664921275841919 0.095664921275841877 0.095664921275841655 -0.065674645918823146 0.095664921275841863 -0.065674645918823146 0.095664921275841946 0.095664921275841891 0.095664921275841891
leaf_weight=27.619501709938053 0.72682899236679377 0.99794650077819713 8.4825452566146868 0.49897325038909945 0.36341449618339539 1.4969197511672971 0.36341449618339539 2.4948662519454938 2.9938395023345947 2.9938395023345947
leaf_count=76 2 2 17 1 1 3 1 5 6 6
internal_value=0 -0.60119 0.868924 0.386683 0.525954 0.708131 0.276756 0.956649 0.956649 0.956649
internal_weight=0 28.9809 20.0512 3.08614 1.36136 2.35931 0.862388 16.9651 8.48255 5.48871
internal_count=120 79 41 7 3 5 2 34 17 11
shrinkage=0.1


Tree=15
num_leaves=6
num_cat=0
split_feature=2 3 0 1 1
split_gain=25.9539 0.78473 1.77636e-15 1.77636e-15 1.77636e-15
threshold=3.1500000000000004 1.0500000000000003 6.7500000000000009 2.8500000000000001 3.4500000000000006
decision_type=2 2 2 2 2
left_child=1 3 -2 -1 -5
right_child=2 -3 -4 4 -6
leaf_value=0.088860985268615078 -0.063992768718931156 -0.063992768718931156 -0.063992768718931156 0.088860985268616355 0.088860985268616369
leaf_weight=0.49214327335358282 21.526941508054737 0.34169748425483604 5.4671597480773917 11.319295287132265 7.8742923736572257
leaf_count=1 63 1 16 23 16
internal_value=0 0.862531 -0.639928 0.88861 0.88861
internal_weight=0 20.0274 26.9941 19.6857 19.1936
internal_count=120 41 79 40 39
shrinkage=0.1


Tree=16
num_leaves=11
num_cat=0
split_feature=3 2 3 1 2 0 0 1 0 0
split_gain=7.61544 14.3521 2.03602 0.845438 0.784026 0.260185 0.374241 0.471197 1.77636e-15 8.88178e-16
threshold=0.45000000000000007 4.9500000000000011 1.6500000000000001 3.1500000000000008 1.8 6.0500000000000007 5.9500000000000011 2.6500000000000008 5.3500000000000005 4.5500000000000007
decision_type=2 2 2 2 2 2 2 2 2 2
left_child=9 2 4 -4 -2 6 -3 -8 -6 -1
right_child=1 5 3 -5 8 -7 7 -9 -10 -11
leaf_value=-0.063992768718931156 -0.063992768718929824 -0.063992768718931156 -0.063992768718931156 0.088860985268616216 0.088860985268616161 -0.063992768718931156 -0.06399276871893099 0.088860985268616188 0.088860985268616369 -0.063992768718931156
leaf_weight=1.02509245276451 0.34169748425484314 1.02509245276451 1.366789937019347 0.49214327335357655 1.4764298200607324 10.934319496154783 0.34169748425483693 0.49214327335357672 17.225014567375183 12.301109433174132
leaf_count=3 1 3 4 1 3 32 1 1 35 36
internal_value=0 0.253086 0.763671 -0.235255 0.861183 -0.581126 -0.235255 0.262234 0.88861 -0.639928
internal_weight=0 33.6953 20.9021 1.85893 19.0431 12.7933 1.85893 0.833841 18.7014 13.3262
internal_count=120 81 44 5 39 37 5 2 38 39
shrinkage=0.1


Tree=17
num_leaves=11
num_cat=0
split_feature=2 3 3 2 1 0 1 0 0 2
split_gain=22.2512 1.62416 0.695656 0.894666 0.592621 0.209075 0.471197 1.77636e-15 1.77636e-15 4.44089e-16
threshold=4.8500000000000005 1.6500000000000001 1.6500000000000001 4.9500000000000011 3.1500000000000008 6.0500000000000007 2.6500000000000008 6.0500000000000007 6.9500000000000011 6.5500000000000016
decision_type=2 2 2 2 2 2 2 2 2 2
left_child=1 7 3 -2 -3 6 -5 -1 -4 -10
right_child=2 4 8 5 -6 -7 -8 -9 9 -11
leaf_value=-0.063992768718931142 -0.063992768718930781 0.088860985268616383 0.088860985268616355 0.088860985268616133 -0.063992768718930976 0.088860985268616313 -0.063992768718930976 -0.063992768718931156 0.088860985268616369 0.088860985268616299
leaf_weight=20.843546539545066 0.68339496850967707 0.98428654670715221 12.795725107192995 0.49214327335357694 0.34169748425483704 1.4764298200607298 0.34169748425483704 5.1254622638225547 2.4607163667678824 1.4764298200607302
leaf_count=61 2 2 26 1 1 3 1 15 5 3
internal_value=0 -0.584807 0.809179 0.365207 0.494716 0.662534 0.262234 -0.639928 0.88861 0.88861
internal_weight=0 27.295 19.7265 2.99367 1.32598 2.31027 0.833841 25.969 16.7329 3.93715
internal_count=120 79 41 7 3 5 2 76 34 8
shrinkage=0.1


Tree=18
num_leaves=9
num_cat=0
split_feature=2 3 0 1 0 0 0 1
split_gain=22.6756 0.669799 1.77636e-15 1.77636e-15 8.88178e-16 4.44089e-16 4.44089e-16 5.55112e-17
threshold=3.1500000000000004 1.0500000000000003 5.9500000000000011 2.8500000000000001 6.0500000000000007 5.8500000000000005 5.4500000000000011 3.1500000000000008
decision_type=2 2 2 2 2 2 2 2
left_child=1 -1 5 -4 -5 6 -2 -7
right_child=2 -3 3 4 -6 7 -8 -9
leaf_value=0.083352642588846559 -0.062505432851629628 -0.062505432851629794 -0.06250543285162978 -0.062505432851629794 -0.062505432851629794 -0.062505432851629725 -0.062505432851629794 -0.062505432851629614
leaf_weight=19.202222824096683 1.280333518981936 0.3200833797454824 7.0418343544006374 0.3200833797454824 10.242668151855467 0.64016675949096669 5.4414174556732178 0.3200833797454834
leaf_count=40 4 1 22 1 32 2 17 1
internal_value=0 0.809612 -0.625054 -0.625054 -0.625054 -0.625054 -0.625054 -0.625054
internal_weight=0 19.5223 25.2866 17.6046 10.5628 7.682 6.72175 0.96025
internal_count=120 41 79 55 33 24 21 3
shrinkage=0.1


Tree=19
num_leaves=16
num_cat=0
split_feature=3 2 3 1 2 0 0 1 0 0 1 1 0 1 3
split_gain=6.76052 12.4677 1.72467 0.742791 0.669221 0.23766 0.334237 0.408555 1.77636e-15 8.88178e-16 4.44089e-16 2.22045e-16 1.11022e-16 1.11022e-16 5.55112e-17
threshold=0.45000000000000007 4.9500000000000011 1.6500000000000001 3.1500000000000008 1.8 6.0500000000000007 5.9500000000000011 2.6500000000000008 6.2500000000000009 4.8500000000000005 3.0500000000000003 3.1500000000000008 5.5500000000000007 2.8500000000000001 1.8500000000000003
decision_type=2 2 2 2 2 2 2 2 2 2 2 2 2 2 2
left_child=9 2 4 12 -2 6 14 -8 -6 10 13 -12 -4 -1 -3
right_child=1 5 3 -5 8 -7 7 -9 -10 -11 11 -13 -14 -15 -16
leaf_value=-0.062505432851629822 -0.06250543285162842 -0.062505432851629822 -0.062505432851629822 0.083352642588846435 0.083352642588846559 -0.062505432851629794 -0.062505432851629614 0.083352642588846407 0.083352642588846587 -0.062505432851629794 -0.062505432851629544 -0.06250543285162978 -0.062505432851629739 -0.062505432851629739 -0.062505432851629711
leaf_weight=0.32008337974548229 0.3200833797454895 0.32008337974548229 0.32008337974548229 0.48005557060241688 12.481444835662844 10.242668151855467 0.3200833797454834 0.48005557060241694 5.760666847229003 8.3221678733825666 0.32008337974548373 2.5606670379638672 0.9602501392364502 0.9602501392364502 0.6401667594909668
leaf_count=1 1 1 1 1 26 32 1 1 12 26 1 8 3 3 2
internal_value=0 0.241378 0.718662 -0.227301 0.808375 -0.566719 -0.227301 0.250043 0.833526 -0.625054 -0.625054 -0.625054 -0.625054 -0.625054 -0.625054
internal_weight=0 32.3256 20.3226 1.76039 18.5622 12.0031 1.76039 0.800139 18.2421 12.4833 4.16108 2.88075 1.28033 1.28033 0.96025
internal_count=120 81 44 5 39 37 5 2 38 39 13 9 4 4 3
shrinkage=0.1


Tree=20
num_leaves=11
num_cat=0
split_feature=2 3 3 2 1 0 1 0 0 1
split_gain=19.4387 1.4553 0.578871 0.778191 0.510704 0.175117 0.408555 1.77636e-15 1.77636e-15 8.88178e-16
threshold=4.8500000000000005 1.6500000000000001 1.6500000000000001 4.9500000000000011 3.1500000000000008 6.0500000000000007 2.6500000000000008 5.5500000000000007 7.8000000000000016 3.0500000000000003
decision_type=2 2 2 2 2 2 2 2 2 2
left_child=1 7 3 -2 -3 6 -5 9 -4 -1
right_child=2 4 8 5 -6 -7 -8 -9 -10 -11
leaf_value=-0.062505432851629711 -0.062505432851629406 0.083352642588846601 0.083352642588846573 0.083352642588846351 -0.062505432851629614 0.083352642588846532 -0.062505432851629614 -0.062505432851629794 0.083352642588846282 -0.062505432851629794
leaf_weight=4.4811673164367738 0.64016675949096979 0.96011114120483276 15.841833829879761 0.48005557060241727 0.3200833797454834 1.4401667118072508 0.3200833797454834 9.6025013923645002 0.48005557060241777 10.242668151855467
leaf_count=14 2 2 33 1 1 3 1 30 1 32
internal_value=0 -0.570365 0.760587 0.347286 0.468842 0.625132 0.250043 -0.625054 0.833526 -0.625054
internal_weight=0 25.6065 19.2024 2.88047 1.28019 2.24031 0.800139 24.3263 16.3219 14.7238
internal_count=120 79 41 7 3 5 2 76 34 46
shrinkage=0.1


Tree=21
num_leaves=6
num_cat=0
split_feature=2 3 1 1 2
split_gain=19.9043 0.576533 1.77636e-15 8.88178e-16 5.55112e-17
threshold=3.1500000000000004 1.0500000000000003 2.8500000000000001 3.7500000000000004 6.5500000000000016
decision_type=2 2 2 2 2
left_child=1 -1 -2 -4 -5
right_child=2 -3 3 4 -6
leaf_value=0.078826035899801236 -0.061187972819265649 -0.061187972819265669 -0.061187972819265683 -0.061187972819265302 -0.061187972819265468
leaf_weight=18.556904792785648 11.654235273599626 0.29882654547691245 11.355408728122708 0.29882654547691423 0.29882654547691345
leaf_count=40 39 1 38 1 1
internal_value=0 0.766071 -0.61188 -0.61188 -0.61188
internal_weight=0 18.8557 23.6073 11.9531 0.597653
internal_count=120 41 79 40 2
shrinkage=0.1


Tree=22
num_leaves=16
num_cat=0
split_feature=3 2 3 1 2 0 0 1 0 0 0 1 1 0 1
split_gain=6.01384 10.8894 1.47442 0.655181 0.576053 0.21669 0.298873 0.356308 8.88178e-16 4.44089e-16 8.88178e-16 4.44089e-16 2.22045e-16 5.55112e-17 5.55112e-17
threshold=0.45000000000000007 4.9500000000000011 1.6500000000000001 3.1500000000000008 1.8 6.0500000000000007 5.9500000000000011 2.6500000000000008 5.6500000000000012 7.2500000000000009 6.3500000000000005 3.0500000000000003 2.6500000000000008 5.5500000000000007 4.3000000000000016
decision_type=2 2 2 2 2 2 2 2 2 2 2 2 2 2 2
left_child=8 2 4 13 -2 6 -3 -8 -1 10 -7 12 -12 -4 -10
right_child=1 5 3 -5 -6 9 7 -9 14 -11 11 -13 -14 -15 -16
leaf_value=-0.061187972819265683 -0.061187972819263498 -0.061187972819265683 -0.06118797281926569 0.078826035899801097 0.07882603589980125 -0.061187972819265704 -0.061187972819265468 0.078826035899801083 -0.061187972819265302 -0.061187972819265635 -0.061187972819265406 -0.061187972819265649 -0.061187972819265649 -0.061187972819265607 -0.061187972819265468
leaf_weight=11.056582182645794 0.29882654547692311 0.89647963643073925 0.29882654547691234 0.463922619819641 17.629059553146362 1.4941327273845653 0.29882654547691345 0.46392261981964111 0.29882654547691423 1.7929592728614805 0.29882654547691379 2.9882654547691345 2.9882654547691345 0.89647963643074036 0.29882654547691345
leaf_count=37 1 3 1 1 38 5 1 1 1 6 1 10 10 3 1
internal_value=0 0.23146 0.681456 -0.220399 0.764922 -0.553996 -0.220399 0.23972 -0.61188 -0.61188 -0.61188 -0.61188 -0.61188 -0.61188 -0.61188
internal_weight=0 30.8088 19.5871 1.65923 17.9279 11.2217 1.65923 0.762749 11.6542 9.56245 7.76949 6.27536 3.28709 1.19531 0.597653
internal_count=120 81 44 5 39 37 5 2 39 32 26 21 11 4 2
shrinkage=0.1


Tree=23
num_leaves=11
num_cat=0
split_feature=2 3 3 2 1 0 1 0 0 0
split_gain=17.0599 1.30533 0.487419 0.680421 0.443108 0.148257 0.356308 1.77636e-15 1.11022e-16 1.11022e-16
threshold=4.8500000000000005 1.6500000000000001 1.6500000000000001 4.9500000000000011 3.1500000000000008 6.0500000000000007 2.6500000000000008 5.8500000000000005 6.1500000000000012 6.9500000000000011
decision_type=2 2 2 2 2 2 2 2 2 2
left_child=1 -1 3 -2 8 6 -5 -4 -3 -7
right_child=2 4 7 5 -6 9 -8 -9 -10 -11
leaf_value=-0.061187972819265662 -0.06118797281926526 0.078826035899801264 0.07882603589980125 0.078826035899801028 -0.061187972819265468 0.078826035899801181 -0.061187972819265468 0.07882603589980125 0.078826035899801083 0.078826035899801083
leaf_weight=22.710817456245426 0.5976530909538299 0.46392261981964 1.3917678594589222 0.4639226198196415 0.29882654547691345 0.927845239639282 0.29882654547691345 14.381601214408873 0.46392261981964111 0.46392261981964111
leaf_count=76 2 1 3 1 1 2 1 31 1 1
internal_value=0 -0.557609 0.720505 0.332185 0.447176 0.594064 0.23972 0.78826 0.78826 0.78826
internal_weight=0 23.9375 18.5255 2.75217 1.22667 2.15452 0.762749 15.7734 0.927845 1.39177
internal_count=120 79 41 7 3 5 2 34 2 3
shrinkage=0.1


Tree=24
num_leaves=3
num_cat=0
split_feature=2 3
split_gain=17.5395 0.499677
threshold=3.1500000000000004 1.0500000000000003
decision_type=2 2
left_child=1 -1
right_child=-2 -3
leaf_value=0.075059797548305537 -0.060019124458133212 -0.060019124458133212
leaf_weight=17.791918516159061 21.972406148910522 0.27813172340392966
leaf_count=40 79 1
internal_value=0 0.729807
internal_weight=0 18.0701
internal_count=120 41
shrinkage=0.1


Tree=25
num_leaves=13
num_cat=0
split_feature=3 2 3 1 2 0 0 1 0 0 1 0
split_gain=5.35922 9.5538 1.27006 0.579788 0.499272 0.197284 0.267545 0.312243 1.77636e-15 4.44089e-16 4.44089e-16 5.55112e-17
threshold=0.45000000000000007 4.9500000000000011 1.6500000000000001 3.1500000000000008 1.8 6.0500000000000007 5.9500000000000011 2.6500000000000008 5.7500000000000009 7.8000000000000016 4.3000000000000016 5.8500000000000005
decision_type=2 2 2 2 2 2 2 2 2 2 2 2
left_child=10 2 4 -4 -2 6 11 -8 -6 -7 -1 -3
right_child=1 5 3 -5 8 9 7 -9 -10 -11 -12 -13
leaf_value=-0.060019124458133226 -0.060019124458130915 -0.060019124458133226 -0.060019124458133212 0.075059797548305399 0.07505979754830551 -0.060019124458133226 -0.06001912445813299 0.075059797548305385 0.075059797548305551 -0.060019124458132823 -0.060019124458132823 -0.06001912445813299
leaf_weight=10.569005489349362 0.27813172340394032 0.55626344680786011 1.1125268936157215 0.44479796290397633 6.6719694435596493 8.622083425521847 0.27813172340393066 0.4447979629039765 10.230353146791456 0.27813172340393144 0.27813172340393144 0.27813172340393066
leaf_count=38 1 2 4 1 15 31 1 1 23 1 1 1
internal_value=0 0.222993 0.650347 -0.214383 0.72873 -0.542737 -0.214383 0.230911 0.750598 -0.600191 -0.600191 -0.600191
internal_weight=0 29.1953 18.7378 1.55732 17.1805 10.4575 1.55732 0.72293 16.9023 8.90022 10.8471 0.834395
internal_count=120 81 44 5 39 37 5 2 38 32 39 3
shrinkage=0.1


Tree=26
num_leaves=13
num_cat=0
split_feature=2 3 3 2 1 0 1 0 2 0 0 0
split_gain=15.0299 1.17184 0.414429 0.597533 0.386613 0.126637 0.312243 1.77636e-15 1.77636e-15 8.88178e-16 8.88178e-16 2.77556e-17
threshold=4.8500000000000005 1.6500000000000001 1.6500000000000001 4.9500000000000011 3.1500000000000008 6.0500000000000007 2.6500000000000008 7.8000000000000016 5.8500000000000005 6.0500000000000007 4.9500000000000011 6.7500000000000009
decision_type=2 2 2 2 2 2 2 2 2 2 2 2
left_child=1 9 3 11 -3 6 -5 8 -4 10 -1 -2
right_child=2 4 7 5 -6 -7 -8 -9 -10 -11 -12 -13
leaf_value=-0.06001912445813308 -0.060019124458132345 0.075059797548305551 0.075059797548305579 0.075059797548305329 -0.06001912445813299 0.075059797548305496 -0.06001912445813299 0.075059797548305246 0.07505979754830551 -0.060019124458133212 -0.060019124458133212 -0.06001912445813299
leaf_weight=4.7282392978668311 0.27813172340393366 0.88959592580795166 11.119949072599406 0.44479796290397677 0.27813172340393066 1.3343938887119291 0.27813172340393066 0.44479796290397722 3.5583837032318124 4.1719758510589591 12.237795829772947 0.27813172340393066
leaf_count=17 1 2 25 1 1 3 1 1 8 15 44 1
internal_value=0 -0.546319 0.687052 0.319355 0.428864 0.567983 0.230911 0.750598 0.750598 -0.600191 -0.600191 -0.600191
internal_weight=0 22.3057 17.7367 2.61359 1.16773 2.05732 0.72293 15.1231 14.6783 21.138 16.966 0.556263
internal_count=120 79 41 7 3 5 2 34 33 76 61 2
shrinkage=0.1


Tree=27
num_leaves=6
num_cat=0
split_feature=2 3 0 1 1
split_gain=15.5063 0.435537 1.77636e-15 8.88178e-16 8.88178e-16
threshold=3.1500000000000004 1.0500000000000003 5.3500000000000005 3.8500000000000001 3.4500000000000006
decision_type=2 2 2 2 2
left_child=1 2 3 4 -1
right_child=-2 -3 -4 -5 -6
leaf_value=0.071893414063283811 -0.058980559996231967 -0.058980559996231967 0.071893414063283839 0.071893414063283534 0.071893414063283798
leaf_weight=9.3187571763992327 20.394479513168335 0.25815796852111722 2.9650591015815726 0.42357987165451128 4.2357987165451059
leaf_count=22 79 1 7 1 10
internal_value=0 0.699293 0.718934 0.718934 0.718934
internal_weight=0 17.2014 16.9432 13.9781 13.5546
internal_count=120 41 40 33 32
shrinkage=0.1


Tree=28
num_leaves=13
num_cat=0
split_feature=3 2 3 1 2 0 0 1 3 0 0 0
split_gain=4.78342 8.41388 1.10097 0.514473 0.435193 0.179409 0.239741 0.274733 8.88178e-16 4.44089e-16 1.11022e-16 5.55112e-17
threshold=0.45000000000000007 4.9500000000000011 1.6500000000000001 3.1500000000000008 1.8 6.0500000000000007 5.9500000000000011 2.6500000000000008 0.35000000000000003 7.8000000000000016 5.3500000000000005 5.6500000000000012
decision_type=2 2 2 2 2 2 2 2 2 2 2 2
left_child=8 2 4 -4 -2 6 -3 -8 -1 -7 -10 -12
right_child=1 5 3 -5 -6 9 7 -9 10 -11 11 -13
leaf_value=-0.058980559996231974 -0.058980559996229531 -0.058980559996231974 -0.058980559996231967 0.071893414063283687 0.071893414063283839 -0.058980559996231988 -0.058980559996231745 0.071893414063283673 -0.058980559996231842 -0.058980559996231564 -0.058980559996231856 -0.058980559996231745
leaf_weight=8.5192129611968959 0.25815796852112782 0.77447390556335327 1.0326318740844715 0.42357987165451039 16.096035122871399 8.0028970241546595 0.25815796852111816 0.4235798716545105 0.77447390556335505 0.25815796852111894 0.51631593704223633 0.25815796852111816
leaf_count=33 1 3 4 1 38 31 1 1 3 1 2 1
internal_value=0 0.21572 0.624085 -0.209122 0.698275 -0.532757 -0.209122 0.223345 -0.589806 -0.589806 -0.589806 -0.589806
internal_weight=0 27.5277 17.8104 1.45621 16.3542 9.71727 1.45621 0.681738 10.0682 8.26105 1.54895 0.774474
internal_count=120 81 44 5 39 37 5 2 39 32 6 3
shrinkage=0.1


Tree=29
num_leaves=10
num_cat=0
split_feature=2 3 3 2 1 0 1 0 0
split_gain=13.2845 1.0528 0.35524 0.526674 0.338899 0.108976 0.274733 8.88178e-16 5.55112e-17
threshold=4.8500000000000005 1.6500000000000001 1.6500000000000001 4.9500000000000011 3.1500000000000008 6.0500000000000007 2.6500000000000008 7.8000000000000016 6.1500000000000012
decision_type=2 2 2 2 2 2 2 2 2
left_child=1 -1 3 -2 8 6 -5 -4 -3
right_child=2 4 7 5 -6 -7 -8 -9 -10
leaf_value=-0.058980559996231953 -0.058980559996231509 0.071893414063283853 0.071893414063283853 0.071893414063283687 -0.058980559996231745 0.071893414063283798 -0.058980559996231745 0.071893414063283534 0.071893414063283673
leaf_weight=19.620005607604984 0.51631593704223933 0.42357987165450933 13.978135764598843 0.42357987165451039 0.25815796852111816 1.2707396149635313 0.25815796852111816 0.42357987165451128 0.4235798716545105
leaf_count=76 2 1 33 1 1 3 1 1 1
internal_value=0 -0.53631 0.658854 0.308375 0.413265 0.545892 0.223345 0.718934 0.718934
internal_weight=0 20.7253 16.8705 2.46879 1.10532 1.95248 0.681738 14.4017 0.84716
internal_count=120 79 41 7 3 5 2 34 2
shrinkage=0.1


Tree=30
num_leaves=8
num_cat=0
split_feature=2 3 0 0 3 0 1
split_gain=13.7468 0.381443 8.88178e-16 8.88178e-16 8.88178e-16 4.44089e-16 5.55112e-17
threshold=3.1500000000000004 1.0500000000000003 5.6500000000000012 5.0500000000000007 0.35000000000000003 5.3500000000000005 4.3000000000000016
decision_type=2 2 2 2 2 2 2
left_child=1 2 3 4 -1 -5 -4
right_child=-2 -3 6 5 -6 -7 -8
leaf_value=0.069207718063397344 -0.058056407074742536 -0.058056407074742536 0.069207718063397053 0.06920771806339733 0.069207718063397053 0.06920771806339733 0.069207718063397192
leaf_weight=8.4214323163032532 18.882875859737396 0.23902374505996604 0.40102058649063194 4.411226451396943 0.40102058649063194 2.0051029324531555 0.4010205864906311
leaf_count=21 79 1 1 11 1 5 1
internal_value=0 0.673392 0.692077 0.692077 0.692077 0.692077 0.692077
internal_weight=0 16.2798 16.0408 15.2388 8.82245 6.41633 0.802041
internal_count=120 41 40 38 22 16 2
shrinkage=0.1


Tree=31
num_leaves=19
num_cat=0
split_feature=3 2 3 1 2 0 0 1 2 0 0 0 0 1 0 1 0 1
split_gain=4.27546 7.43395 0.959498 0.457576 0.381148 0.163002 0.215021 0.242555 8.88178e-16 4.44089e-16 4.44089e-16 4.44089e-16 4.44089e-16 1.66533e-16 5.55112e-17 5.55112e-17 2.77556e-17 2.77556e-17
threshold=0.45000000000000007 4.9500000000000011 1.6500000000000001 3.1500000000000008 1.8 6.0500000000000007 5.9500000000000011 2.6500000000000008 4.8500000000000005 5.6500000000000012 5.3500000000000005 4.6500000000000012 7.8000000000000016 3.1500000000000008 5.5500000000000007 3.5500000000000003 6.2500000000000009 3.8500000000000001
decision_type=2 2 2 2 2 2 2 2 2 2 2 2 2 2 2 2 2 2
left_child=9 2 4 14 -2 6 -3 -8 -6 10 11 13 -7 -1 -4 -12 -16 -17
right_child=1 5 3 -5 8 12 7 -9 -10 -11 15 -13 -14 -15 16 17 -18 -19
leaf_value=-0.058056407074742883 -0.058056407074740815 -0.058056407074742612 -0.058056407074742571 0.069207718063397192 0.069207718063397372 -0.058056407074742536 -0.058056407074742293 0.069207718063397192 0.069207718063397206 -0.058056407074742328 -0.058056407074742446 -0.058056407074742522 -0.058056407074742328 -0.05805640707474248 -0.058056407074742411 -0.058056407074742293 -0.058056407074742293 -0.058056407074742411
leaf_weight=0.47804749011993031 0.23902374505997315 0.71707123517989912 0.23902374505996596 0.4010205864906311 14.436741113662716 7.4097360968589783 0.23902374505996704 0.4010205864906311 0.8020411729812631 0.47804749011993486 0.47804749011993386 6.2146173715591431 0.23902374505996693 0.95609498023986805 0.47804749011993408 0.23902374505996704 0.23902374505996704 0.47804749011993408
leaf_count=2 1 3 1 1 36 31 1 1 2 2 2 26 1 4 2 1 1 2
internal_value=0 0.209435 0.601732 -0.204505 0.672424 -0.523895 -0.204505 0.216811 0.692077 -0.580564 -0.580564 -0.580564 -0.580564 -0.580564 -0.580564 -0.580564 -0.580564 -0.580564
internal_weight=0 25.8408 16.8349 1.35712 15.4778 9.00588 1.35712 0.640044 15.2388 9.32193 8.84388 7.64876 7.64876 1.43414 0.956095 1.19512 0.717071 0.717071
internal_count=120 81 44 5 39 37 5 2 38 39 37 32 32 6 4 5 3 3
shrinkage=0.1


Tree=32
num_leaves=14
num_cat=0
split_feature=2 3 3 2 1 0 1 0 0 0 0 1 0
split_gain=11.7743 0.946511 0.30659 0.465674 0.298244 0.0943673 0.242555 8.88178e-16 8.88178e-16 2.22045e-16 2.22045e-16 1.11022e-16 2.77556e-17
threshold=4.8500000000000005 1.6500000000000001 1.6500000000000001 4.9500000000000011 3.1500000000000008 6.0500000000000007 2.6500000000000008 6.0500000000000007 6.3500000000000005 6.2500000000000009 6.7500000000000009 2.6500000000000008 6.9500000000000011
decision_type=2 2 2 2 2 2 2 2 2 2 2 2 2
left_child=1 7 3 -2 -3 6 -5 -1 9 -4 -9 -11 -12
right_child=2 4 8 5 -6 -7 -8 10 -10 11 12 -13 -14
leaf_value=-0.058056407074742515 -0.05805640707474248 0.069207718063397372 0.069207718063397358 0.069207718063397206 -0.058056407074742293 0.069207718063397303 -0.058056407074742293 -0.058056407074742522 0.069207718063397358 0.06920771806339715 -0.058056407074742328 0.069207718063397275 -0.058056407074742293
leaf_weight=14.580448448657995 0.47804749011993353 0.8020411729812611 2.0051029324531546 0.40102058649063094 0.23902374505996704 1.2030617594718931 0.23902374505996704 3.1073086857795711 10.426535248756407 0.40102058649063127 0.23902374505996693 0.80204117298126221 0.23902374505996704
leaf_count=61 2 2 5 1 1 3 1 13 26 1 1 2 1
internal_value=0 -0.527421 0.634883 0.298922 0.399885 0.527034 0.216811 -0.580564 0.692077 0.692077 -0.580564 0.692077 -0.580564
internal_weight=0 19.2069 15.9559 2.32115 1.04106 1.84311 0.640044 18.1658 13.6347 3.20816 3.58536 1.20306 0.478047
internal_count=120 79 41 7 3 5 2 76 34 8 15 3 2
shrinkage=0.1


Tree=33
num_leaves=4
num_cat=0
split_feature=2 3 0
split_gain=12.2159 0.335415 8.88178e-16
threshold=3.1500000000000004 1.0500000000000003 5.3500000000000005
decision_type=2 2 2
left_child=1 2 -1
right_child=-2 -3 -4
leaf_value=0.06691241357181231 -0.057232943692888762 -0.057232943692888297 0.066912413571812254
leaf_weight=12.465398222208018 17.444154500961304 0.22081208229065016 2.6441753804683694
leaf_count=33 79 1 7
internal_value=0 0.651243 0.669124
internal_weight=0 15.3304 15.1096
internal_count=120 41 40
shrinkage=0.1


Tree=34
num_leaves=23
num_cat=0
split_feature=3 2 3 1 2 0 0 1 0 0 0 1 1 3 1 1 2 3 0 0 2 2
split_gain=3.8262 6.5864 0.840012 0.407779 0.335161 0.147986 0.193009 0.21477 8.88178e-16 8.88178e-16 4.44089e-16 2.22045e-16 2.22045e-16 2.22045e-16 1.11022e-16 1.11022e-16 1.11022e-16 1.11022e-16 5.55112e-17 5.55112e-17 5.55112e-17 5.55112e-17
threshold=0.45000000000000007 4.9500000000000011 1.6500000000000001 3.1500000000000008 1.8 6.0500000000000007 5.9500000000000011 2.6500000000000008 6.9500000000000011 6.7500000000000009 6.4500000000000011 3.7500000000000004 3.0500000000000003 2.0500000000000003 2.5500000000000003 3.1500000000000008 5.8500000000000005 1.6500000000000001 6.2500000000000009 6.3500000000000005 5.8500000000000005 6.0500000000000007
decision_type=2 2 2 2 2 2 2 2 2 2 2 2 2 2 2 2 2 2 2 2 2 2
left_child=-1 2 4 18 -2 6 -3 -8 9 -6 13 12 14 -7 -12 -14 17 -16 -4 -15 -17 -18
right_child=1 5 3 -5 8 10 7 -9 -10 -11 11 -13 15 19 16 20 21 -19 -20 -21 -22 -23
leaf_value=-0.057232943692888762 -0.057232943692887839 -0.057232943692888838 -0.057232943692888762 0.066912413571812115 0.06691241357181231 -0.057232943692888685 -0.057232943692888498 0.066912413571812115 0.066912413571811977 0.066912413571812143 -0.057232943692888422 -0.057232943692888644 -0.057232943692888685 -0.057232943692888665 -0.057232943692888422 -0.057232943692888706 -0.057232943692888553 -0.057232943692888706 -0.057232943692888498 -0.057232943692888671 -0.057232943692888498 -0.057232943692888699
leaf_weight=8.6116712093353254 0.220812082290652 0.66243624687194624 0.66243624687194713 0.37773934006690973 13.220876902341837 1.1040604114532473 0.22081208229064939 0.37773934006690973 0.37773934006691057 0.75547868013382036 0.22081208229064972 0.44162416458129872 0.66243624687194813 0.44162416458129855 0.22081208229064972 0.88324832916259743 0.22081208229064919 1.1040604114532468 0.22081208229064939 0.66243624687194813 0.22081208229064939 0.88324832916259755
leaf_count=39 1 3 3 1 35 5 1 1 1 2 1 2 3 2 1 4 1 5 1 3 1 4
internal_value=0 0.203979 0.582571 -0.200442 0.650316 -0.516013 -0.200442 0.211139 0.669124 0.669124 -0.572329 -0.572329 -0.572329 -0.572329 -0.572329 -0.572329 -0.572329 -0.572329 -0.572329 -0.572329 -0.572329 -0.572329
internal_weight=0 24.1629 15.8359 1.26099 14.5749 8.32697 1.26099 0.598551 14.3541 13.9764 7.06599 4.85787 4.41624 2.20812 2.64974 1.7665 2.42893 1.32487 0.883248 1.10406 1.10406 1.10406
internal_count=120 81 44 5 39 37 5 2 38 37 32 22 20 10 12 8 11 6 4 5 5 5
shrinkage=0.1


Tree=35
num_leaves=11
num_cat=0
split_feature=2 3 3 2 1 0 1 0 0 0
split_gain=10.4606 0.851468 0.266141 0.412848 0.263346 0.082154 0.21477 8.88178e-16 8.88178e-16 4.44089e-16
threshold=4.8500000000000005 1.6500000000000001 1.6500000000000001 4.9500000000000011 3.1500000000000008 6.0500000000000007 2.6500000000000008 5.3500000000000005 7.8000000000000016 5.1500000000000012
decision_type=2 2 2 2 2 2 2 2 2 2
left_child=1 7 3 -2 -3 6 -5 9 -4 -1
right_child=2 4 8 5 -6 -7 -8 -9 -10 -11
leaf_value=-0.057232943692888706 -0.057232943692888699 0.066912413571812296 0.06691241357181231 0.066912413571812143 -0.057232943692888498 0.06691241357181224 -0.057232943692888498 -0.057232943692888762 0.066912413571811977 -0.057232943692888685
leaf_weight=7.2867987155914369 0.44162416458129833 0.75547868013381858 12.46539822220802 0.37773934006690968 0.22081208229064939 1.1332180202007291 0.22081208229064939 8.8324832916259748 0.37773934006691057 0.66243624687194813
leaf_count=33 2 2 33 1 1 3 1 40 1 3
internal_value=0 -0.519514 0.614359 0.290737 0.388339 0.510831 0.211139 -0.572329 0.669124 -0.572329
internal_weight=0 17.758 15.0165 2.17339 0.976291 1.73177 0.598551 16.7817 12.8431 7.94923
internal_count=120 79 41 7 3 5 2 76 34 36
shrinkage=0.1


Tree=36
num_leaves=7
num_cat=0
split_feature=2 3 2 0 0 0
split_gain=10.8778 0.295956 1.77636e-15 8.88178e-16 8.88178e-16 1.11022e-16
threshold=3.1500000000000004 1.0500000000000003 1.6500000000000001 7.8000000000000016 5.4500000000000011 5.3500000000000005
decision_type=2 2 2 2 2 2
left_child=1 2 -1 4 -2 -4
right_child=3 -3 5 -5 -6 -7
leaf_value=0.064937914577269593 -0.056498253701665592 -0.056498253701665217 0.064937914577269482 -0.056498253701665217 -0.056498253701665717 0.064937914577269495
leaf_weight=12.398276925086973 0.81430405378341741 0.20357601344585496 1.0627094507217414 0.20357601344585496 15.064624994993208 0.70847296714782704
leaf_count=35 4 1 3 1 74 2
internal_value=0 0.632179 0.649379 -0.564983 -0.564983 0.649379
internal_weight=0 14.373 14.1695 16.0825 15.8789 1.77118
internal_count=120 41 40 79 78 5
shrinkage=0.1


Tree=37
num_leaves=12
num_cat=0
split_feature=3 2 3 1 2 0 0 1 0 1 3
split_gain=3.42795 5.84948 0.738275 0.364026 0.295736 0.134272 0.17338 0.190646 8.88178e-16 4.44089e-16 2.22045e-16
threshold=0.45000000000000007 4.9500000000000011 1.6500000000000001 3.1500000000000008 1.8 6.0500000000000007 5.9500000000000011 2.6500000000000008 5.5500000000000007 2.9500000000000006 1.9500000000000002
decision_type=2 2 2 2 2 2 2 2 2 2 2
left_child=-1 2 4 -4 -2 6 -3 -8 -6 -7 -11
right_child=1 5 3 -5 8 9 7 -9 -10 10 -12
leaf_value=-0.056498253701665682 -0.056498253701664725 -0.056498253701665724 -0.056498253701665717 0.064937914577269398 0.064937914577269593 -0.056498253701665696 -0.056498253701665439 0.064937914577269398 0.064937914577269593 -0.056498253701665647 -0.056498253701665696
leaf_weight=7.939464524388316 0.20357601344585677 0.61072804033756156 0.81430405378341564 0.35423648357391357 2.8338918685913077 2.2393361479043961 0.20357601344585416 0.35423648357391357 10.627094507217405 0.81430405378341664 3.4607922285795212
leaf_count=39 1 3 4 1 8 11 1 1 30 4 17
internal_value=0 0.19922 0.566047 -0.196856 0.631287 -0.508992 -0.196856 0.206193 0.649379 -0.564983 -0.564983
internal_weight=0 22.5161 14.8331 1.16854 13.6646 7.68297 1.16854 0.557812 13.461 6.51443 4.2751
internal_count=120 81 44 5 39 37 5 2 38 32 21
shrinkage=0.1


Tree=38
num_leaves=11
num_cat=0
split_feature=2 3 1 3 2 0 1 0 1 0
split_gain=9.31264 0.766389 0.2332 0.232177 0.366865 0.071849 0.190646 8.88178e-16 8.88178e-16 5.55112e-17
threshold=4.8500000000000005 1.6500000000000001 3.1500000000000008 1.6500000000000001 4.9500000000000011 6.0500000000000007 2.6500000000000008 6.3500000000000005 3.7500000000000004 6.2500000000000009
decision_type=2 2 2 2 2 2 2 2 2 2
left_child=1 7 -3 4 -2 6 -6 -1 -5 -7
right_child=3 2 -4 8 5 9 -8 -9 -10 -11
leaf_value=-0.056498253701665696 -0.056498253701665647 0.064937914577269426 -0.056498253701665439 0.064937914577269593 0.064937914577269426 0.06493791457726944 -0.056498253701665439 -0.056498253701665647 0.064937914577269426 0.064937914577269482
leaf_weight=13.843168914318086 0.40715202689170782 0.70847296714782793 0.20357601344585416 11.335567474365231 0.35423648357391346 0.3542364835739133 0.20357601344585416 1.6286081075668342 0.70847296714782793 0.70847296714782715
leaf_count=68 2 2 1 32 1 1 1 8 2 2
internal_value=0 -0.512471 0.378325 0.596674 0.283618 0.496827 0.206193 -0.564983 0.649379 0.649379
internal_weight=0 16.3838 0.912049 14.0717 2.02767 1.62052 0.557812 15.4718 12.044 1.06271
internal_count=120 79 3 41 7 5 2 76 34 3
shrinkage=0.1


Tree=39
num_leaves=4
num_cat=0
split_feature=2 3 0
split_gain=9.70357 0.26191 8.88178e-16
threshold=3.1500000000000004 1.0500000000000003 5.6500000000000012
decision_type=2 2 2
left_child=1 2 -1
right_child=-2 -3 -4
leaf_value=0.063229727753232864 -0.055841985146367693 -0.055841985146367158 0.063229727753232698
leaf_weight=12.574533462524412 14.800140663981436 0.18734355270862657 0.66181755065918046
leaf_count=38 79 1 2
internal_value=0 0.615679 0.632297
internal_weight=0 13.4237 13.2364
internal_count=120 41 40
shrinkage=0.1


Tree=40
num_leaves=11
num_cat=0
split_feature=3 2 3 1 2 0 0 1 0 0
split_gain=3.0742 5.20584 0.651042 0.325452 0.261718 0.12177 0.155853 0.169599 4.44089e-16 1.11022e-16
threshold=0.45000000000000007 4.9500000000000011 1.6500000000000001 3.1500000000000008 1.8 6.0500000000000007 5.9500000000000011 2.6500000000000008 6.5500000000000007 6.3500000000000005
decision_type=2 2 2 2 2 2 2 2 2 2
left_child=-1 2 4 -4 -2 6 -3 -8 9 -7
right_child=1 5 3 -5 -6 8 7 -9 -10 -11
leaf_value=-0.055841985146367658 -0.055841985146366624 -0.055841985146367706 -0.055841985146367693 0.063229727753232684 0.063229727753232864 -0.055841985146367616 -0.055841985146367394 0.063229727753232684 -0.055841985146367672 -0.055841985146367658
leaf_weight=7.3063985556364086 0.18734355270862835 0.56203065812587627 0.74937421083450206 0.33090877532958984 12.574533462524412 0.93671776354312919 0.18734355270862577 0.33090877532958984 3.3721839487552643 1.6860919743776319
leaf_count=39 1 3 4 1 38 5 1 1 18 9
internal_value=0 0.195054 0.55172 -0.193683 0.614818 -0.50273 -0.193683 0.201864 -0.55842 -0.55842
internal_weight=0 20.9174 13.8422 1.08028 12.7619 7.07528 1.08028 0.518252 5.99499 2.62281
internal_count=120 81 44 5 39 37 5 2 32 14
shrinkage=0.1


Tree=41
num_leaves=14
num_cat=0
split_feature=2 3 1 3 2 3 0 0 0 0 0 0 0
split_gain=8.30555 0.690153 0.207016 0.203413 0.326663 0.0630848 0.169599 1.77636e-15 8.88178e-16 4.44089e-16 2.22045e-16 1.11022e-16 5.55112e-17
threshold=4.8500000000000005 1.6500000000000001 3.1500000000000008 1.6500000000000001 4.9500000000000011 1.5500000000000003 6.9500000000000011 5.8500000000000005 7.8000000000000016 5.3500000000000005 5.6500000000000012 5.4500000000000011 5.5500000000000007
decision_type=2 2 2 2 2 2 2 2 2 2 2 2 2
left_child=1 7 -3 4 -2 -6 -7 9 -5 -1 11 -11 -13
right_child=3 2 -4 8 5 6 -8 -9 -10 10 -12 12 -14
leaf_value=-0.055841985146367693 -0.055841985146367693 0.063229727753232698 -0.055841985146367394 0.063229727753232878 0.063229727753232823 -0.055841985146367394 0.063229727753232684 -0.055841985146367658 0.063229727753232531 -0.055841985146367616 -0.055841985146367658 -0.055841985146367651 -0.055841985146367595
leaf_weight=6.7443678975105268 0.37468710541725059 0.66181755065918046 0.18734355270862577 10.919989585876461 0.99272632598876931 0.18734355270862577 0.33090877532958984 3.3721839487552652 0.33090877532959062 0.93671776354312919 1.6860919743776319 0.93671776354312875 0.56203065812587738
leaf_count=36 2 2 1 33 3 1 1 18 1 5 9 5 3
internal_value=0 -0.506188 0.369599 0.581354 0.277399 0.484662 0.201864 -0.55842 0.632297 -0.55842 -0.55842 -0.55842 -0.55842
internal_weight=0 15.0873 0.849161 13.1366 1.88567 1.51098 0.518252 14.2381 11.2509 10.8659 4.12156 2.43547 1.49875
internal_count=120 79 3 41 7 5 2 76 34 58 22 13 8
shrinkage=0.1


Tree=42
num_leaves=5
num_cat=0
split_feature=2 3 0 0
split_gain=8.66957 0.232371 8.88178e-16 8.88178e-16
threshold=3.1500000000000004 1.0500000000000003 5.3500000000000005 7.8000000000000016
decision_type=2 2 2 2
left_child=1 2 -1 -2
right_child=3 -3 -4 -5
leaf_value=0.061744615384317726 -0.055255112292660696 -0.055255112292660113 0.061744615384317671 -0.055255112292660113
leaf_weight=10.166102617979048 13.425540536642071 0.17212231457233507 2.1564460098743448 0.17212231457233507
leaf_count=33 78 1 7 1
internal_value=0 0.601329 0.617446 -0.552551
internal_weight=0 12.4947 12.3225 13.5977
internal_count=120 41 40 79
shrinkage=0.1


Tree=43
num_leaves=15
num_cat=0
split_feature=3 2 3 1 2 0 0 1 0 0 0 0 0 1
split_gain=2.75941 4.64146 0.575791 0.291345 0.232203 0.110389 0.140184 0.15116 1.77636e-15 4.44089e-16 2.22045e-16 1.11022e-16 1.11022e-16 5.55112e-17
threshold=0.45000000000000007 4.9500000000000011 1.6500000000000001 3.1500000000000008 1.8 6.0500000000000007 5.9500000000000011 2.6500000000000008 5.5500000000000007 6.9500000000000011 6.5500000000000007 6.2500000000000009 6.4500000000000011 3.0500000000000003
decision_type=2 2 2 2 2 2 2 2 2 2 2 2 2 2
left_child=-1 2 4 -4 -2 6 -3 -8 -6 10 11 -7 13 -13
right_child=1 5 3 -5 8 9 7 -9 -10 -11 -12 12 -14 -15
leaf_value=-0.055255112292660662 -0.055255112292660113 -0.055255112292660696 -0.055255112292660551 0.061744615384317525 0.061744615384317726 -0.055255112292660405 -0.05525511229266037 0.061744615384317525 0.061744615384317726 -0.055255112292660662 -0.055255112292660662 -0.055255112292660613 -0.055255112292660613 -0.055255112292660585
leaf_weight=6.71277026832104 0.17212231457233507 0.51636694371700187 0.68848925828933794 0.30806371569633484 2.4645097255706778 0.34424462914466936 0.17212231457233429 0.30806371569633484 9.2419114708900434 1.5491008311510084 1.5491008311510084 0.86061157286167167 0.68848925828933705 0.51636694371700287
leaf_count=39 1 3 4 1 8 2 1 1 30 9 9 5 4 3
internal_value=0 0.191395 0.53924 -0.190871 0.600493 -0.497138 -0.190871 0.198062 0.617446 -0.552551 -0.552551 -0.552551 -0.552551 -0.552551
internal_weight=0 19.3796 12.8751 0.996553 11.8785 6.50447 0.996553 0.480186 11.7064 5.50791 3.95881 2.40971 2.06547 1.37698
internal_count=120 81 44 5 39 37 5 2 38 32 23 14 12 8
shrinkage=0.1


Tree=44
num_leaves=10
num_cat=0
split_feature=2 3 1 3 2 3 0 0 0
split_gain=7.419 0.621778 0.184168 0.178871 0.291379 0.0555792 0.15116 8.88178e-16 1.38778e-17
threshold=4.8500000000000005 1.6500000000000001 3.1500000000000008 1.6500000000000001 4.9500000000000011 1.5500000000000003 6.9500000000000011 6.7500000000000009 6.7500000000000009
decision_type=2 2 2 2 2 2 2 2 2
left_child=1 7 -3 4 8 -6 -7 -1 -2
right_child=3 2 -4 -5 5 6 -8 -9 -10
leaf_value=-0.055255112292660696 -0.055255112292660696 0.061744615384317553 -0.05525511229266037 0.061744615384317726 0.061744615384317671 -0.05525511229266037 0.061744615384317525 -0.055255112292660405 -0.05525511229266037
leaf_weight=12.737051278352736 0.17212231457233329 0.61612743139267045 0.17212231457233429 10.474166333675383 0.92419114708900429 0.17212231457233429 0.30806371569633484 0.34424462914466936 0.17212231457233429
leaf_count=74 1 2 1 34 3 1 1 2 1
internal_value=0 -0.500576 0.361965 0.568018 0.271947 0.47405 0.198062 -0.552551 -0.552551
internal_weight=0 13.8695 0.78825 12.2228 1.74862 1.40438 0.480186 13.0813 0.344245
internal_count=120 79 3 41 7 5 2 76 2
shrinkage=0.1


Tree=45
num_leaves=17
num_cat=0
split_feature=2 3 0 0 0 0 0 1 1 2 1 1 1 1 1 2
split_gain=7.75632 0.20662 8.88178e-16 4.44089e-16 4.44089e-16 4.44089e-16 4.44089e-16 4.44089e-16 4.44089e-16 4.44089e-16 2.22045e-16 2.22045e-16 1.11022e-16 1.11022e-16 1.11022e-16 5.55112e-17
threshold=3.1500000000000004 1.0500000000000003 5.6500000000000012 5.4500000000000011 4.9500000000000011 7.8000000000000016 6.7500000000000009 3.3500000000000001 2.6500000000000008 5.8500000000000005 3.5500000000000003 3.1500000000000008 3.0500000000000003 2.8500000000000001 2.8500000000000001 1.5500000000000003
decision_type=2 2 2 2 2 2 2 2 2 2 2 2 2 2 2 2
left_child=1 2 3 4 10 6 7 8 -2 -10 11 12 13 -1 -8 -14
right_child=5 -3 -4 -5 -6 -7 14 -9 9 -11 -12 -13 15 -15 -16 -17
leaf_value=0.060447835242725026 -0.054729760080749548 -0.054729760080748813 0.060447835242724374 0.060447835242724179 0.060447835242724547 -0.054729760080748813 -0.054729760080749236 -0.054729760080748813 -0.054729760080749416 -0.054729760080749118 0.060447835242724374 0.06044783524272454 0.060447835242724471 0.060447835242724512 -0.054729760080749396 0.060447835242724346
leaf_weight=0.28593337535857832 2.8422650098800588 0.15790361166000444 0.57186675071716397 0.28593337535858232 6.0046008825302124 0.15790361166000444 0.63161444664001587 0.15790361166000444 6.7898553013801575 0.15790361166000355 0.28593337535858143 2.0015336275100708 0.57186675071716297 1.1437335014343259 1.7369397282600401 0.28593337535858154
leaf_count=1 18 1 2 1 21 1 4 1 43 1 1 7 2 4 11 1
internal_value=0 0.588794 0.604478 0.604478 0.604478 -0.547298 -0.547298 -0.547298 -0.547298 -0.547298 0.604478 0.604478 0.604478 0.604478 -0.547298 0.604478
internal_weight=0 11.5952 11.4373 10.8655 10.5795 12.4744 12.3165 9.94793 9.79002 6.94776 4.57493 4.289 2.28747 1.42967 2.36855 0.8578
internal_count=120 41 40 38 37 79 78 63 62 44 16 15 8 5 15 3
shrinkage=0.1


Tree=46
num_leaves=18
num_cat=0
split_feature=3 2 3 1 2 0 0 1 0 0 0 0 0 0 0 0 0
split_gain=2.47881 4.14486 0.510532 0.26111 0.206472 0.100039 0.126162 0.134949 4.44089e-16 4.44089e-16 4.44089e-16 4.44089e-16 8.88178e-16 2.22045e-16 1.11022e-16 1.11022e-16 2.77556e-17
threshold=0.45000000000000007 4.9500000000000011 1.6500000000000001 3.1500000000000008 1.8 6.0500000000000007 5.9500000000000011 2.6500000000000008 6.9500000000000011 6.7500000000000009 5.5500000000000007 6.4500000000000011 6.3500000000000005 7.2500000000000009 5.3500000000000005 5.4500000000000011 6.2500000000000009
decision_type=2 2 2 2 2 2 2 2 2 2 2 2 2 2 2 2 2
left_child=-1 2 4 16 -2 6 -3 -8 9 10 14 12 -12 -7 -6 -16 -4
right_child=1 5 3 -5 8 13 7 -9 -10 -11 11 -13 -14 -15 15 -17 -18
leaf_value=-0.054729760080749396 -0.054729760080748813 -0.054729760080749423 -0.054729760080749229 0.060447835242724346 0.060447835242724859 -0.054729760080749416 -0.054729760080749083 0.060447835242724346 0.060447835242724179 0.060447835242724374 0.060447835242724547 0.060447835242724512 0.060447835242724471 -0.054729760080749368 0.060447835242724374 0.060447835242724506 -0.054729760080749083
leaf_weight=6.1582408547401455 0.15790361166000444 0.47371083498000999 0.47371083498001176 0.28593337535858154 0.85780012607573941 4.1054939031600952 0.15790361166000366 0.28593337535858154 0.28593337535858232 0.57186675071716397 6.0046008825302124 1.1437335014343259 0.57186675071716297 0.94742166996002175 0.28593337535858143 1.1437335014343262 0.15790361166000366
leaf_count=39 1 3 3 1 3 26 1 1 1 2 21 4 2 6 1 4 1
internal_value=0 0.18817 0.528324 -0.188372 0.58798 -0.492138 -0.188372 0.194712 0.604478 0.604478 0.604478 0.604478 0.604478 -0.547298 0.604478 0.604478 -0.547298
internal_weight=0 17.9114 11.9409 0.917548 11.0234 5.97046 0.917548 0.443837 10.8655 10.5795 10.0077 7.7202 6.57647 5.05292 2.28747 1.42967 0.631614
internal_count=120 81 44 5 39 37 5 2 38 37 35 27 23 32 8 5 4
shrinkage=0.1


Tree=47
num_leaves=17
num_cat=0
split_feature=2 3 1 3 2 3 0 1 0 0 0 0 0 1 1 1
split_gain=6.63622 0.560404 0.164148 0.157796 0.260309 0.0491126 0.134949 8.88178e-16 4.44089e-16 4.44089e-16 4.44089e-16 4.44089e-16 4.44089e-16 4.44089e-16 1.11022e-16 1.11022e-16
threshold=4.8500000000000005 1.6500000000000001 3.1500000000000008 1.6500000000000001 4.9500000000000011 1.5500000000000003 6.9500000000000011 2.7500000000000004 6.7500000000000009 6.5500000000000007 6.3500000000000005 5.0500000000000007 7.8000000000000016 4.3000000000000016 2.5500000000000003 2.6500000000000008
decision_type=2 2 2 2 2 2 2 2 2 2 2 2 2 2 2 2
left_child=1 8 -3 4 -2 -6 -7 14 9 10 11 -1 -9 -13 -5 -16
right_child=3 2 -4 7 5 6 -8 12 -10 -11 -12 13 -14 -15 15 -17
leaf_value=-0.054729760080749493 -0.054729760080749423 0.060447835242724374 -0.054729760080749083 0.060447835242724623 0.060447835242724506 -0.054729760080749083 0.060447835242724346 0.060447835242724561 -0.054729760080749118 -0.054729760080749229 -0.054729760080749229 -0.054729760080749416 0.060447835242724374 -0.054729760080749118 0.060447835242724374 0.060447835242724506
leaf_weight=3.7896866798400826 0.31580722332000638 0.57186675071716397 0.15790361166000366 0.57186675071716142 0.8578001260757443 0.15790361166000366 0.28593337535858154 7.4342677593231201 0.3158072233200081 0.47371083498001176 0.47371083498001176 6.7898553013801575 0.28593337535858143 0.15790361166000355 0.28593337535858143 1.1437335014343262
leaf_count=24 2 2 1 2 3 1 1 26 2 3 3 43 1 1 1 4
internal_value=0 -0.495558 0.355264 0.556361 0.267151 0.464755 0.194712 0.604478 -0.547298 -0.547298 -0.547298 -0.547298 0.604478 -0.547298 0.604478 0.604478
internal_weight=0 12.7304 0.72977 11.3392 1.61744 1.30164 0.443837 9.72173 12.0007 11.6849 11.2112 10.7374 7.7202 6.94776 2.00153 1.42967
internal_count=120 79 3 41 7 5 2 34 76 74 71 68 27 44 7 5
shrinkage=0.1


Tree=48
num_leaves=6
num_cat=0
split_feature=2 3 0 0 1
split_gain=6.94762 0.184078 4.44089e-16 4.44089e-16 1.11022e-16
threshold=3.1500000000000004 1.0500000000000003 5.6500000000000012 4.6500000000000012 3.1500000000000008
decision_type=2 2 2 2 2
left_child=1 2 3 4 -1
right_child=-2 -3 -4 -5 -6
leaf_value=0.059311196082604004 -0.054259028492509978 -0.054259028492509312 0.059311196082603802 0.059311196082604004 0.059311196082603962
leaf_weight=0.52937328815460105 11.428619980812071 0.14466607570648271 0.52937328815460283 8.469972610473631 1.0587465763092039
leaf_count=2 79 1 2 32 4
internal_value=0 0.577803 0.593112 0.593112 0.593112
internal_weight=0 10.7321 10.5875 10.0581 1.58812
internal_count=120 41 40 38 6
shrinkage=0.1


Tree=49
num_leaves=13
num_cat=0
split_feature=3 2 3 1 2 0 0 1 0 0 0 0
split_gain=2.22834 3.7066 0.453675 0.23425 0.183947 0.0906364 0.113599 0.120651 4.44089e-16 2.22045e-16 2.22045e-16 2.77556e-17
threshold=0.45000000000000007 4.9500000000000011 1.6500000000000001 3.1500000000000008 1.8 6.0500000000000007 5.9500000000000011 2.6500000000000008 6.7500000000000009 5.1500000000000012 7.2500000000000009 5.5500000000000007
decision_type=2 2 2 2 2 2 2 2 2 2 2 2
left_child=9 2 4 11 -2 6 -3 -8 -6 -1 -7 -4
right_child=1 5 3 -5 8 10 7 -9 -10 -11 -12 -13
leaf_value=-0.054259028492509936 -0.054259028492509312 -0.054259028492509978 -0.054259028492509312 0.059311196082603782 0.059311196082604017 -0.054259028492509964 -0.054259028492509603 0.059311196082603782 0.059311196082603872 -0.054259028492509943 -0.054259028492509923 -0.054259028492509853
leaf_weight=4.1953161954879787 0.14466607570648271 0.4339982271194448 0.14466607570648271 0.26468664407730103 9.2640325427055323 3.7613179683685303 0.14466607570648193 0.26468664407730103 0.79405993223190385 1.4466607570648191 0.86799645423889149 0.4339982271194458
leaf_count=29 1 3 1 1 35 26 1 1 3 10 6 3
internal_value=0 0.185321 0.518743 -0.186149 0.577009 -0.487662 -0.186149 0.191752 0.593112 -0.54259 -0.54259 -0.54259
internal_weight=0 16.5188 11.0461 0.843351 10.2028 5.47267 0.843351 0.409353 10.0581 5.64198 4.62931 0.578664
internal_count=120 81 44 5 39 37 5 2 38 39 32 4
shrinkage=0.1


Tree=50
num_leaves=11
num_cat=0
split_feature=2 3 1 3 2 3 0 0 0 0
split_gain=5.94326 0.505274 0.146545 0.139594 0.232868 0.0435114 0.120651 8.88178e-16 4.44089e-16 4.44089e-16
threshold=4.8500000000000005 1.6500000000000001 3.1500000000000008 1.6500000000000001 4.9500000000000011 1.5500000000000003 6.9500000000000011 6.9500000000000011 6.4500000000000011 7.2500000000000009
decision_type=2 2 2 2 2 2 2 2 2 2
left_child=1 7 -3 4 -2 -6 -7 8 -1 -5
right_child=3 2 -4 9 5 6 -8 -9 -10 -11
leaf_value=-0.054259028492509992 -0.054259028492509978 0.059311196082603802 -0.054259028492509603 0.059311196082604017 0.059311196082603948 -0.054259028492509603 0.059311196082603782 -0.054259028492509312 -0.054259028492509846 0.059311196082603969
leaf_weight=10.126625299453732 0.28933215141296287 0.52937328815460283 0.14466607570648193 7.4112260341644269 0.79405993223190274 0.14466607570648193 0.26468664407730103 0.14466607570648271 0.72333037853241045 1.5881198644638059
leaf_count=70 2 2 1 28 3 1 1 1 5 6
internal_value=0 -0.491067 0.349361 0.546134 0.26292 0.456586 0.191752 -0.54259 -0.54259 0.593112
internal_weight=0 11.6687 0.674039 10.4921 1.49274 1.20341 0.409353 10.9946 10.85 8.99935
internal_count=120 79 3 41 7 5 2 76 75 34
shrinkage=0.1


Tree=51
num_leaves=7
num_cat=0
split_feature=2 3 0 0 0 1
split_gain=6.22985 0.164272 4.44089e-16 4.44089e-16 4.44089e-16 2.77556e-17
threshold=3.1500000000000004 1.0500000000000003 5.6500000000000012 5.4500000000000011 4.8500000000000005 4.3000000000000016
decision_type=2 2 2 2 2 2
left_child=1 2 3 4 -1 -4
right_child=-2 -3 5 -5 -6 -7
leaf_value=0.058311556289138082 -0.053836874186790507 -0.053836874186789785 0.058311556289137603 0.058311556289137603 0.058311556289138013 0.058311556289137791
leaf_weight=3.1777264475822413 10.457913562655447 0.1323786526918419 0.24444049596786577 0.24444049596786577 5.8665719032287598 0.24444049596786496
leaf_count=13 79 1 1 1 24 1
internal_value=0 0.568135 0.583116 0.583116 0.583116 0.583116
internal_weight=0 9.91 9.77762 9.28874 9.0443 0.488881
internal_count=120 41 40 38 37 2
shrinkage=0.1


Tree=52
num_leaves=17
num_cat=0
split_feature=3 2 3 1 2 0 0 1 0 0 1 2 2 2 0 0
split_gain=2.00446 3.31879 0.403937 0.21034 0.164157 0.0820996 0.102335 0.108005 4.44089e-16 4.44089e-16 4.44089e-16 4.44089e-16 3.33067e-16 1.11022e-16 2.77556e-17 2.77556e-17
threshold=0.45000000000000007 4.9500000000000011 1.6500000000000001 3.1500000000000008 1.8 6.0500000000000007 5.9500000000000011 2.6500000000000008 4.6500000000000012 6.9500000000000011 2.6500000000000008 4.0500000000000007 3.6000000000000005 3.9500000000000006 5.8500000000000005 7.2500000000000009
decision_type=2 2 2 2 2 2 2 2 2 2 2 2 2 2 2 2
left_child=8 2 4 -4 -2 6 14 -8 -1 11 15 12 -6 -14 -3 -7
right_child=1 5 3 -5 9 10 7 -9 -10 -11 -12 -13 13 -15 -16 -17
leaf_value=-0.053836874186790278 -0.053836874186791242 -0.053836874186790507 -0.053836874186790333 0.058311556289137791 0.058311556289138158 -0.053836874186790395 -0.053836874186790111 0.058311556289137791 -0.0538368741867905 0.058311556289137603 -0.0538368741867905 0.058311556289138013 0.058311556289137978 0.058311556289137971 -0.053836874186790111 -0.053836874186790111
leaf_weight=0.79427191615104931 0.13237865269183835 0.26475730538368125 0.52951461076736528 0.24444049596786496 0.97776198387145685 0.39713595807552327 0.13237865269184113 0.24444049596786496 4.3684955388307571 0.24444049596786577 3.7066022753715515 6.1110123991966248 0.97776198387145952 0.97776198387145996 0.13237865269184113 0.13237865269184113
leaf_count=6 1 2 4 1 4 3 1 1 33 1 28 25 4 4 1 1
internal_value=0 0.182798 0.510306 -0.184167 0.567357 -0.483652 -0.184167 0.189132 -0.538369 0.583116 -0.538369 0.583116 0.583116 0.583116 -0.538369 -0.538369
internal_weight=0 15.2051 10.1951 0.773955 9.42112 5.01007 0.773955 0.376819 5.16277 9.28874 4.23612 9.0443 2.93329 1.95552 0.397136 0.529515
internal_count=120 81 44 5 39 37 5 2 39 38 32 37 12 8 3 4
shrinkage=0.1


Tree=53
num_leaves=15
num_cat=0
split_feature=2 3 1 3 2 3 0 0 0 0 0 0 0 0
split_gain=5.32838 0.455719 0.131019 0.123796 0.20857 0.0386372 0.108005 4.44089e-16 4.44089e-16 4.44089e-16 2.77556e-17 2.77556e-17 2.77556e-17 1.38778e-17
threshold=4.8500000000000005 1.6500000000000001 3.1500000000000008 1.6500000000000001 4.9500000000000011 1.5500000000000003 6.9500000000000011 6.7500000000000009 7.8000000000000016 6.3500000000000005 6.1500000000000012 6.2500000000000009 6.0500000000000007 6.7500000000000009
decision_type=2 2 2 2 2 2 2 2 2 2 2 2 2 2
left_child=1 7 10 4 13 11 -7 -1 9 -5 -3 12 -6 -2
right_child=3 2 -4 8 5 6 -8 -9 -10 -11 -12 -13 -14 -15
leaf_value=-0.053836874186790507 -0.053836874186790507 0.058311556289137603 -0.053836874186790111 0.058311556289138103 0.058311556289137839 -0.053836874186790111 0.058311556289137791 -0.053836874186790153 0.058311556289137603 0.058311556289138013 0.058311556289137791 0.058311556289137791 0.058311556289137791 -0.053836874186790111
leaf_weight=9.7960202991962415 0.13237865269184013 0.24444049596786577 0.13237865269184113 1.9555239677429159 0.2444404959678648 0.13237865269184113 0.24444049596786496 0.26475730538368303 0.24444049596786577 6.1110123991966248 0.24444049596786496 0.24444049596786496 0.24444049596786496 0.13237865269184113
leaf_count=74 1 1 1 8 1 1 1 2 1 25 1 1 1 1
internal_value=0 -0.487042 0.344149 0.537133 0.259178 0.449384 0.189132 -0.538369 0.583116 0.583116 0.583116 0.583116 0.583116 -0.538369
internal_weight=0 10.682 0.62126 9.68587 1.3749 1.11014 0.376819 10.0608 8.31098 8.06654 0.488881 0.733321 0.488881 0.264757
internal_count=120 79 3 41 7 5 2 76 34 33 2 3 2 2
shrinkage=0.1


Tree=54
num_leaves=3
num_cat=0
split_feature=2 3
split_gain=5.59149 0.146815
threshold=3.1500000000000004 1.0500000000000003
decision_type=2 2
left_child=1 -1
right_child=-2 -3
leaf_value=0.057429799289330785 -0.053457982054687374 -0.053457982054686597
leaf_weight=9.0107810497283936 9.5592601075768453 0.12100329250097352
leaf_count=40 79 1
internal_value=0 0.559604
internal_weight=0 9.13178
internal_count=120 41
shrinkage=0.1


Tree=55
num_leaves=10
num_cat=0
split_feature=3 2 3 1 2 0 0 1 3
split_gain=1.80412 2.97481 0.360271 0.18902 0.146713 0.0743538 0.0922259 0.096794 1.38778e-17
threshold=0.45000000000000007 4.9500000000000011 1.6500000000000001 3.1500000000000008 1.8 6.0500000000000007 5.9500000000000011 2.6500000000000008 1.8500000000000003
decision_type=2 2 2 2 2 2 2 2 2
left_child=-1 2 4 -4 -2 6 8 -8 -3
right_child=1 5 3 -5 -6 -7 7 -9 -10
leaf_value=-0.053457982054687339 -0.053457982054688158 -0.053457982054687374 -0.053457982054687186 0.057429799289330542 0.057429799289330799 -0.05345798205468736 -0.053457982054686937 0.057429799289330542 -0.053457982054687159
leaf_weight=4.7191284075379398 0.12100329250096996 0.12100329250097176 0.48401317000389177 0.22526952624320984 8.5602419972419721 3.8721053600311279 0.12100329250097276 0.22526952624320984 0.2420065850019455
leaf_count=39 1 1 4 1 38 32 1 1 2
internal_value=0 0.180559 0.502855 -0.182398 0.558842 -0.480056 -0.182398 0.186806 -0.53458
internal_weight=0 13.9719 9.39053 0.709283 8.68125 4.58139 0.709283 0.346273 0.36301
internal_count=120 81 44 5 39 37 5 2 3
shrinkage=0.1


Tree=56
num_leaves=11
num_cat=0
split_feature=2 3 1 3 2 3 0 0 0 0
split_gain=4.78167 0.411148 0.117287 0.110023 0.187006 0.0343781 0.096794 4.44089e-16 5.55112e-17 1.38778e-17
threshold=4.8500000000000005 1.6500000000000001 3.1500000000000008 1.6500000000000001 4.9500000000000011 1.5500000000000003 6.9500000000000011 6.5500000000000007 6.9500000000000011 6.7500000000000009
decision_type=2 2 2 2 2 2 2 2 2 2
left_child=1 7 -3 4 9 -6 -7 -1 -9 -2
right_child=3 2 -4 -5 5 6 -8 8 -10 -11
leaf_value=-0.053457982054687374 -0.053457982054687769 0.057429799289330563 -0.053457982054686937 0.057429799289330785 0.05742979928933073 -0.053457982054686937 0.057429799289330542 -0.053457982054687186 -0.053457982054686937 -0.053457982054686937
leaf_weight=8.5912337675690633 0.12100329250097086 0.45053905248642045 0.12100329250097276 7.6591638922691345 0.67580857872962929 0.12100329250097276 0.22526952624320984 0.48401317000389177 0.12100329250097276 0.12100329250097276
leaf_count=71 1 2 1 34 3 1 1 4 1 1
internal_value=0 -0.483433 0.339533 0.529187 0.25586 0.443019 0.186806 -0.53458 -0.53458 -0.53458
internal_weight=0 9.76779 0.571542 8.92325 1.26409 1.02208 0.346273 9.19625 0.605016 0.242007
internal_count=120 79 3 41 7 5 2 76 5 2
shrinkage=0.1


Tree=57
num_leaves=12
num_cat=0
split_feature=2 3 0 0 0 0 0 0 0 0 1
split_gain=5.02272 0.131386 4.44089e-16 4.44089e-16 4.44089e-16 4.44089e-16 2.22045e-16 2.22045e-16 5.55112e-17 2.77556e-17 2.77556e-17
threshold=3.1500000000000004 1.0500000000000003 5.3500000000000005 5.1500000000000012 7.8000000000000016 5.5500000000000007 4.9500000000000011 4.6500000000000012 5.6500000000000012 5.3500000000000005 3.5500000000000003
decision_type=2 2 2 2 2 2 2 2 2 2 2
left_child=1 2 3 6 5 9 7 -1 -4 -2 -5
right_child=4 -3 8 10 -6 -7 -8 -9 -10 -11 -12
leaf_value=0.056649959154086826 -0.053117656681180729 -0.053117656681179438 0.056649959154086854 0.056649959154086653 -0.053117656681179438 -0.053117656681180292 0.056649959154086875 0.056649959154086875 0.056649959154086771 -0.053117656681180209 0.056649959154086764
leaf_weight=1.2432861328125002 0.33149103820323578 0.11049701273441392 1.0360717773437498 0.20721435546874989 0.11049701273441392 7.7347908914089203 2.9010009765625 2.0721435546875 0.41442871093749994 0.55248506367206573 0.4144287109375
leaf_count=6 3 1 5 1 1 70 14 10 2 5 2
internal_value=0 0.552059 0.5665 0.5665 -0.531177 -0.531177 0.5665 0.5665 0.5665 -0.531177 0.5665
internal_weight=0 8.39907 8.28857 6.83807 8.72926 8.61877 6.21643 3.31543 1.4505 0.883976 0.621643
internal_count=120 41 40 33 79 78 30 16 7 8 3
shrinkage=0.1


Tree=58
num_leaves=13
num_cat=0
split_feature=3 2 3 1 2 0 0 1 0 0 0 1
split_gain=1.62463 2.66908 0.321813 0.16998 0.131295 0.067329 0.0831471 0.0868333 4.44089e-16 4.44089e-16 4.44089e-16 2.22045e-16
threshold=0.45000000000000007 4.9500000000000011 1.6500000000000001 3.1500000000000008 1.8 6.0500000000000007 5.9500000000000011 2.6500000000000008 5.4500000000000011 6.9500000000000011 6.5500000000000007 3.8500000000000001
decision_type=2 2 2 2 2 2 2 2 2 2 2 2
left_child=11 2 4 -4 -2 6 -3 -8 -6 10 -10 -1
right_child=1 5 3 -5 8 -7 7 -9 9 -11 -12 -13
leaf_value=-0.05311765668118025 -0.053117656681180729 -0.053117656681180292 -0.053117656681180195 0.056649959154086618 0.056649959154086826 -0.053117656681180285 -0.05311765668117982 0.056649959154086618 0.056649959154086882 0.056649959154086653 0.056649959154086854 -0.053117656681180195
leaf_weight=3.8673954457044628 0.11049701273441126 0.33149103820323844 0.44198805093765248 0.20721435546875 0.828857421875 3.5359044075012207 0.11049701273441316 0.20721435546875 5.802001953125 0.20721435546874989 1.0360717773437498 0.44198805093765248
leaf_count=35 1 3 4 1 4 32 1 1 28 1 5 4
internal_value=0 0.178567 0.496259 -0.180817 0.551309 -0.476828 -0.180817 0.184738 0.5665 0.5665 0.5665 -0.531177
internal_weight=0 12.819 8.63384 0.649202 7.98464 4.18511 0.649202 0.317711 7.87415 7.04529 6.83807 4.30938
internal_count=120 81 44 5 39 37 5 2 38 34 33 39
shrinkage=0.1


Tree=59
num_leaves=13
num_cat=0
split_feature=2 3 1 3 2 0 1 0 0 0 0 0
split_gain=4.29468 0.371038 0.105112 0.0979693 0.16783 0.0306428 0.0868333 4.44089e-16 4.44089e-16 4.44089e-16 4.44089e-16 2.77556e-17
threshold=4.8500000000000005 1.6500000000000001 3.1500000000000008 1.6500000000000001 4.9500000000000011 6.0500000000000007 2.6500000000000008 6.5500000000000007 6.4500000000000011 7.8000000000000016 7.2500000000000009 6.9500000000000011
decision_type=2 2 2 2 2 2 2 2 2 2 2 2
left_child=1 7 -3 4 -2 6 -6 8 -1 10 -5 -7
right_child=3 2 -4 9 5 11 -8 -9 -10 -11 -12 -13
leaf_value=-0.053117656681180292 -0.053117656681180542 0.056649959154086653 -0.05311765668117982 0.056649959154086882 0.056649959154086618 0.056649959154086764 -0.05311765668117982 -0.053117656681180216 -0.053117656681179876 0.056649959154086653 0.056649959154086854 0.056649959154086618
leaf_weight=7.7347908914089203 0.2209940254688243 0.41442871093750078 0.11049701273441316 5.802001953125 0.20721435546875 0.4144287109375 0.11049701273441316 0.55248506367206562 0.11049701273441304 0.20721435546874989 1.0360717773437498 0.20721435546875
leaf_count=70 2 2 1 28 1 2 1 5 1 1 5 1
internal_value=0 -0.480193 0.335438 0.522156 0.252913 0.437379 0.184738 -0.531177 -0.531177 0.5665 0.5665 0.5665
internal_weight=0 8.9227 0.524926 8.20564 1.16035 0.939354 0.317711 8.39777 7.84529 7.04529 6.83807 0.621643
internal_count=120 79 3 41 7 5 2 76 71 34 33 3
shrinkage=0.1


Tree=60
num_leaves=7
num_cat=0
split_feature=2 3 0 0 0 0
split_gain=4.51517 0.117714 4.44089e-16 4.44089e-16 4.44089e-16 2.77556e-17
threshold=3.1500000000000004 1.0500000000000003 5.4500000000000011 7.8000000000000016 7.2500000000000009 5.6500000000000012
decision_type=2 2 2 2 2 2
left_child=1 2 -1 4 -2 -4
right_child=3 -3 5 -5 -6 -7
leaf_value=0.055958646722522293 -0.05281177936243675 -0.052811779362436286 0.055958646722522043 -0.052811779362436286 -0.052811779362436667 0.055958646722522154
leaf_weight=7.0406849384307861 7.3594007715582848 0.10081370919942843 0.19028878211975089 0.10081370919942843 0.50406854599714268 0.38057756423950201
leaf_count=37 73 1 1 1 5 2
internal_value=0 0.545368 0.559586 -0.528118 -0.528118 0.559586
internal_weight=0 7.71236 7.61155 7.96428 7.86347 0.570866
internal_count=120 41 40 79 78 3
shrinkage=0.1


Tree=61
num_leaves=12
num_cat=0
split_feature=3 2 3 1 2 0 3 1 0 0 0
split_gain=1.46369 2.39684 0.287847 0.152954 0.117633 0.0609606 0.0749877 0.0779666 4.44089e-16 1.11022e-16 1.38778e-17
threshold=0.45000000000000007 4.9500000000000011 1.6500000000000001 3.1500000000000008 1.8 6.0500000000000007 1.6500000000000001 2.6500000000000008 6.9500000000000011 7.2500000000000009 6.1500000000000012
decision_type=2 2 2 2 2 2 2 2 2 2 2
left_child=-1 2 4 10 -2 6 7 -3 -6 -7 -4
right_child=1 5 3 -5 8 9 -8 -9 -10 -11 -12
leaf_value=-0.05281177936243673 -0.052811779362437222 -0.052811779362436057 -0.052811779362436521 0.055958646722522015 0.055958646722522293 -0.05281177936243673 -0.052811779362436584 0.055958646722522015 0.055958646722522043 -0.052811779362436674 -0.052811779362436501
leaf_weight=3.9317346587777147 0.10081370919942668 0.10081370919942888 0.20162741839885701 0.19028878211975095 7.0406849384307861 2.621156439185143 0.30244112759828568 0.19028878211975095 0.19028878211975089 0.60488225519657124 0.20162741839885712
leaf_count=39 1 1 2 1 37 26 3 1 1 6 2
internal_value=0 0.176793 0.490406 -0.179402 0.54463 -0.473929 -0.179402 0.182896 0.559586 -0.528118 -0.528118
internal_weight=0 11.7449 7.92533 0.593544 7.33179 3.81958 0.593544 0.291102 7.23097 3.22604 0.403255
internal_count=120 81 44 5 39 37 5 2 38 32 4
shrinkage=0.1


Tree=62
num_leaves=9
num_cat=0
split_feature=2 3 1 3 2 0 1 0
split_gain=3.86021 0.334924 0.0942945 0.087383 0.150747 0.0273563 0.0779666 4.44089e-16
threshold=4.8500000000000005 1.6500000000000001 3.1500000000000008 1.6500000000000001 4.9500000000000011 6.0500000000000007 2.6500000000000008 7.8000000000000016
decision_type=2 2 2 2 2 2 2 2
left_child=1 -1 -3 4 -2 6 -6 -5
right_child=3 2 -4 7 5 -7 -8 -9
leaf_value=-0.052811779362436764 -0.05281177936243632 0.055958646722522168 -0.05281177936243623 0.055958646722522293 0.055958646722522015 0.055958646722522203 -0.05281177936243623 0.055958646722522043
leaf_weight=7.6618418991565687 0.20162741839885776 0.38057756423950179 0.10081370919942856 6.2795298099517822 0.19028878211975095 0.57086634635925293 0.10081370919942856 0.19028878211975089
leaf_count=76 2 2 1 33 1 3 1 1
internal_value=0 -0.477283 0.331798 0.515919 0.25029 0.432371 0.182896 0.559586
internal_weight=0 8.14323 0.481391 7.53341 1.0636 0.861969 0.291102 6.46982
internal_count=120 79 3 41 7 5 2 34
shrinkage=0.1


Tree=63
num_leaves=7
num_cat=0
split_feature=2 3 0 0 2 2
split_gain=4.06159 0.105573 4.44089e-16 4.44089e-16 2.22045e-16 1.11022e-16
threshold=3.1500000000000004 1.0500000000000003 5.6500000000000012 6.5500000000000007 4.6500000000000012 5.8500000000000005
decision_type=2 2 2 2 2 2
left_child=1 2 -1 4 -2 -6
right_child=3 -3 -4 -5 5 -7
leaf_value=0.055344528139754795 -0.052536687831572275 -0.052536687831571782 0.055344528139754656 -0.052536687831572261 -0.052536687831572254 -0.052536687831571782
leaf_weight=6.6304565370082855 2.6652615740895271 0.091905571520328397 0.3489713966846465 2.2057337164878845 2.2976392880082135 0.091905571520328397
leaf_count=38 29 1 2 24 25 1
internal_value=0 0.539424 0.553445 -0.525367 -0.525367 -0.525367
internal_weight=0 7.07133 6.97943 7.26054 5.05481 2.38954
internal_count=120 41 40 79 55 26
shrinkage=0.1


Tree=64
num_leaves=9
num_cat=0
split_feature=3 2 3 1 2 0 3 1
split_gain=1.31924 2.15403 0.257773 0.137711 0.105501 0.0551891 0.0676501 0.0700605
threshold=0.45000000000000007 4.9500000000000011 1.6500000000000001 3.1500000000000008 1.8 6.0500000000000007 1.6500000000000001 2.6500000000000008
decision_type=2 2 2 2 2 2 2 2
left_child=-1 2 4 -4 -2 6 7 -3
right_child=1 5 3 -5 -6 -7 -8 -9
leaf_value=-0.052536687831572261 -0.052536687831572795 -0.052536687831571532 -0.052536687831572164 0.055344528139754483 0.055344528139754795 -0.052536687831572275 -0.052536687831572094 0.055344528139754483
leaf_weight=3.5843172892928132 0.091905571520326634 0.091905571520328827 0.36762228608131398 0.1744856983423233 6.6304565370082855 2.9409782886505127 0.27571671456098562 0.1744856983423233
leaf_count=39 1 1 4 1 38 32 3 1
internal_value=0 0.17521 0.485203 -0.178135 0.538696 -0.471324 -0.178135 0.181253
internal_weight=0 10.7476 7.26447 0.542108 6.72236 3.48309 0.542108 0.266391
internal_count=120 81 44 5 39 37 5 2
shrinkage=0.1


Tree=65
num_leaves=16
num_cat=0
split_feature=2 3 1 3 2 0 1 0 0 0 2 0 1 2 1
split_gain=3.47203 0.302393 0.0846654 0.078057 0.135504 0.0244564 0.0700605 2.22045e-16 2.22045e-16 2.22045e-16 2.22045e-16 5.55112e-17 5.55112e-17 5.55112e-17 2.77556e-17
threshold=4.8500000000000005 1.6500000000000001 3.1500000000000008 1.6500000000000001 4.9500000000000011 6.0500000000000007 2.6500000000000008 5.8500000000000005 6.9500000000000011 6.2500000000000009 4.4500000000000011 6.5500000000000007 2.9500000000000006 6.5500000000000016 2.7500000000000004
decision_type=2 2 2 2 2 2 2 2 2 2 2 2 2 2 2
left_child=1 7 -3 4 -2 6 -6 10 9 -5 -1 12 14 -10 -9
right_child=3 2 -4 8 5 -7 -8 11 13 -11 -12 -13 -14 -15 -16
leaf_value=-0.052536687831572275 -0.052536687831572032 0.055344528139754656 -0.05253668783157172 0.055344528139754746 0.055344528139754483 0.055344528139754691 -0.05253668783157172 -0.052536687831572143 0.055344528139754746 0.055344528139754795 -0.052536687831572032 -0.052536687831572185 -0.052536687831572143 0.055344528139754691 -0.052536687831572199
leaf_weight=5.1467120051383972 0.18381114304065693 0.3489713966846465 0.091905571520328508 0.87242849171161629 0.1744856983423233 0.52345709502696991 0.091905571520328508 0.27571671456098534 0.87242849171161629 3.6641996651887894 0.18381114304065693 0.4595278576016425 0.36762228608131409 0.52345709502696991 0.55143342912197113
leaf_count=56 2 2 1 5 1 3 1 3 5 21 2 5 4 3 6
internal_value=0 -0.474668 0.328555 0.510376 0.247952 0.427916 0.181253 -0.525367 0.553445 0.553445 -0.525367 -0.525367 -0.525367 0.553445 -0.525367
internal_weight=0 7.4257 0.440877 6.90617 0.97366 0.789848 0.266391 6.98482 5.93251 4.53663 5.33052 1.6543 1.19477 1.39589 0.82715
internal_count=120 79 3 41 7 5 2 76 34 26 58 18 13 8 9
shrinkage=0.1


Tree=66
num_leaves=7
num_cat=0
split_feature=2 3 0 2 0 2
split_gain=3.65573 0.0947705 2.22045e-16 2.22045e-16 1.11022e-16 5.55112e-17
threshold=3.1500000000000004 1.0500000000000003 6.4500000000000011 1.6500000000000001 6.7500000000000009 4.9500000000000011
decision_type=2 2 2 2 2 2
left_child=1 3 -2 -1 -4 -6
right_child=2 -3 4 -5 5 -7
leaf_value=0.054797965455834964 -0.05228915009702978 -0.052289150097029238 -0.052289150097029724 0.054797965455834922 -0.052289150097029606 -0.052289150097029752
leaf_weight=5.5923733860254288 4.1862096637487411 0.083724193274974698 1.0884145125746729 0.7989104837179184 0.25117257982492441 1.0884145125746725
leaf_count=35 50 1 13 5 3 13
internal_value=0 0.534133 -0.522892 0.54798 -0.522892 -0.522892
internal_weight=0 6.47501 6.61421 6.39128 2.428 1.33959
internal_count=120 41 79 40 29 16
shrinkage=0.1


Tree=67
num_leaves=12
num_cat=0
split_feature=3 2 3 1 2 0 3 1 0 1 1
split_gain=1.1895 1.93715 0.231086 0.124048 0.0947061 0.0499599 0.0610477 0.0630004 2.22045e-16 2.22045e-16 1.11022e-16
threshold=0.45000000000000007 4.9500000000000011 1.6500000000000001 3.1500000000000008 1.8 6.0500000000000007 1.6500000000000001 2.6500000000000008 6.7500000000000009 3.5500000000000003 2.8500000000000001
decision_type=2 2 2 2 2 2 2 2 2 2 2
left_child=9 2 4 -4 -2 6 7 -3 -6 10 -1
right_child=1 5 3 -5 8 -7 -8 -9 -10 -11 -12
leaf_value=-0.052289150097028128 -0.052289150097030349 -0.052289150097028961 -0.052289150097029648 0.054797965455834631 0.054797965455834964 -0.052289150097029773 -0.052289150097029585 0.054797965455834631 0.054797965455834874 -0.052289150097029752 -0.052289150097029773
leaf_weight=0.083724193274976474 0.083724193274972922 0.083724193274975156 0.33489677309989918 0.15978209674358368 5.5923733860254288 2.6791741847991943 0.25117257982492447 0.15978209674358368 0.47934629023075087 1.0884145125746725 2.0931048318743706
leaf_count=1 1 1 4 1 35 32 3 1 3 13 25
internal_value=0 0.173796 0.480569 -0.176998 0.533414 -0.46898 -0.176998 0.179785 0.54798 -0.522892 -0.522892
internal_weight=0 9.82398 6.65012 0.494679 6.15544 3.17385 0.494679 0.243506 6.07172 3.26524 2.17683
internal_count=120 81 44 5 39 37 5 2 38 39 26
shrinkage=0.1


Tree=68
num_leaves=13
num_cat=0
split_feature=2 3 1 3 2 0 1 2 0 0 0 3
split_gain=3.12475 0.273078 0.0760795 0.069819 0.121884 0.021891 0.0630004 4.44089e-16 2.22045e-16 2.22045e-16 5.55112e-17 2.77556e-17
threshold=4.8500000000000005 1.6500000000000001 3.1500000000000008 1.6500000000000001 4.9500000000000011 6.0500000000000007 2.6500000000000008 3.6000000000000005 6.4500000000000011 7.2500000000000009 7.8000000000000016 1.9500000000000002
decision_type=2 2 2 2 2 2 2 2 2 2 2 2
left_child=1 7 -3 4 -2 6 -6 -1 -5 -10 11 -11
right_child=3 2 -4 8 5 -7 -8 -9 9 10 -12 -13
leaf_value=-0.052289150097029773 -0.052289150097029516 0.054797965455834818 -0.052289150097029162 0.054797965455834957 0.054797965455834631 0.054797965455834867 -0.052289150097029162 -0.052289150097029773 0.054797965455834943 0.054797965455834818 0.054797965455834631 0.054797965455834867
leaf_weight=3.6838645040988922 0.16744838654994951 0.31956419348716725 0.083724193274974809 2.0771672576665878 0.15978209674358368 0.47934629023075104 0.083724193274974809 2.6791741847991943 2.3967314511537556 0.31956419348716725 0.15978209674358368 0.47934629023075104
leaf_count=44 2 2 1 13 1 3 1 32 15 2 1 3
internal_value=0 -0.472316 0.325663 0.50544 0.245864 0.423946 0.179785 -0.522892 0.54798 0.54798 0.54798 0.54798
internal_weight=0 6.76633 0.403288 6.32289 0.890301 0.722853 0.243506 6.36304 5.43259 3.35542 0.958693 0.79891
internal_count=120 79 3 41 7 5 2 76 34 21 6 5
shrinkage=0.1


Tree=69
num_leaves=9
num_cat=0
split_feature=2 3 0 0 0 1 1 2
split_gain=3.29217 0.0851426 2.22045e-16 2.22045e-16 2.22045e-16 1.11022e-16 2.77556e-17 1.38778e-17
threshold=3.1500000000000004 1.0500000000000003 7.8000000000000016 6.9500000000000011 6.2500000000000009 2.6500000000000008 3.7500000000000004 4.9500000000000011
decision_type=2 2 2 2 2 2 2 2
left_child=1 -1 3 4 -2 7 -5 -6
right_child=2 -3 -4 6 5 -7 -8 -9
leaf_value=0.05431071496995718 -0.052066288338652823 -0.052066288338652233 -0.052066288338652233 -0.052066288338652768 -0.052066288338652379 -0.052066288338652823 -0.052066288338652157 -0.052066288338652504
leaf_weight=5.8457273244857788 2.7439738512039185 0.076221495866775388 0.076221495866775388 0.60977196693420399 0.15244299173355136 2.2104233801364899 0.076221495866775499 0.15244299173355105
leaf_count=40 36 1 1 8 2 29 1 2
internal_value=0 0.529415 -0.520663 -0.520663 -0.520663 -0.520663 -0.520663 -0.520663
internal_weight=0 5.92195 6.0215 5.94528 5.25928 2.51531 0.685993 0.304886
internal_count=120 41 79 78 69 33 9 4
shrinkage=0.1


Tree=70
num_leaves=15
num_cat=0
split_feature=3 2 3 1 2 0 3 1 0 0 0 1 1 1
split_gain=1.07289 1.74318 0.207358 0.111791 0.085085 0.0452231 0.0551037 0.0566873 2.22045e-16 1.11022e-16 1.11022e-16 5.55112e-17 5.55112e-17 1.38778e-17
threshold=0.45000000000000007 4.9500000000000011 1.6500000000000001 3.1500000000000008 1.8 6.0500000000000007 1.6500000000000001 2.6500000000000008 6.1500000000000012 5.4500000000000011 6.7500000000000009 3.1500000000000008 2.7500000000000004 2.6500000000000008
decision_type=2 2 2 2 2 2 2 2 2 2 2 2 2 2
left_child=9 2 4 -4 -2 6 7 -3 -6 -1 11 12 13 -7
right_child=1 5 3 -5 8 10 -8 -9 -10 -11 -12 -13 -14 -15
leaf_value=-0.052066288338652802 -0.052066288338653448 -0.052066288338651928 -0.052066288338652691 0.054310714969956812 0.05431071496995718 -0.05206628833865256 -0.052066288338652615 0.054310714969956812 0.054310714969957166 -0.052066288338652636 -0.052066288338652789 -0.052066288338652726 -0.052066288338652768 -0.052066288338652157
leaf_weight=2.7439738512039198 0.076221495866773611 0.076221495866775846 0.30488598346710194 0.14614318311214447 3.5074363946914673 0.22866448760032679 0.22866448760032651 0.14614318311214447 2.0460045635700226 0.22866448760032643 0.99087944626808155 0.45732897520065302 0.68599346280097961 0.076221495866775499
leaf_count=36 1 1 4 1 24 3 3 1 14 3 13 6 9 1
internal_value=0 0.172531 0.476435 -0.175978 0.528704 -0.466872 -0.175978 0.178471 0.543107 -0.520663 -0.520663 -0.520663 -0.520663 -0.520663
internal_weight=0 8.97081 6.08069 0.451029 5.62966 2.89012 0.451029 0.222365 5.55344 2.97264 2.43909 1.44821 0.990879 0.304886
internal_count=120 81 44 5 39 37 5 2 38 39 32 19 13 4
shrinkage=0.1


Tree=71
num_leaves=15
num_cat=0
split_feature=2 3 1 3 2 0 1 0 0 0 0 0 0 0
split_gain=2.81373 0.24665 0.0684124 0.0625241 0.109697 0.0196164 0.0566873 2.22045e-16 1.11022e-16 1.11022e-16 5.55112e-17 5.55112e-17 1.38778e-17 6.93889e-18
threshold=4.8500000000000005 1.6500000000000001 3.1500000000000008 1.6500000000000001 4.9500000000000011 6.0500000000000007 2.6500000000000008 6.7500000000000009 6.3500000000000005 7.2500000000000009 5.7500000000000009 6.2500000000000009 6.1500000000000012 6.7500000000000009
decision_type=2 2 2 2 2 2 2 2 2 2 2 2 2 2
left_child=1 -1 12 4 13 6 -6 8 10 -9 -5 -12 -3 -2
right_child=3 2 -4 7 5 -7 -8 9 -10 -11 11 -13 -14 -15
leaf_value=-0.052066288338652837 -0.052066288338652233 0.054310714969956854 -0.052066288338652157 0.054310714969956687 0.054310714969956812 0.054310714969957069 -0.052066288338652157 0.054310714969957145 0.054310714969957166 0.054310714969957125 0.054310714969957111 0.054310714969957069 0.054310714969956812 -0.052066288338652157
leaf_weight=5.792833685874939 0.076221495866775388 0.14614318311214436 0.076221495866775499 0.1461431831121448 0.14614318311214447 0.43842954933643347 0.076221495866775499 0.8768590986728666 2.0460045635700226 0.87685909867286693 0.58457273244857766 0.43842954933643347 0.14614318311214447 0.076221495866775499
leaf_count=76 1 1 1 1 1 3 1 6 14 6 4 3 1 1
internal_value=0 -0.470199 0.323079 0.501038 0.243998 0.420403 0.178471 0.543107 0.543107 0.543107 0.543107 0.543107 0.543107 -0.520663
internal_weight=0 6.16134 0.368508 5.78211 0.813237 0.660794 0.222365 4.96887 3.21515 1.75372 1.16915 1.023 0.292286 0.152443
internal_count=120 79 3 41 7 5 2 34 22 12 8 7 2 2
shrinkage=0.1


Tree=72
num_leaves=4
num_cat=0
split_feature=2 3 0
split_gain=2.96617 0.0765482 2.22045e-16
threshold=3.1500000000000004 1.0500000000000003 4.8500000000000005
decision_type=2 2 2
left_child=1 2 -1
right_child=-2 -3 -4
leaf_value=0.053875705353432203 -0.05186555226187059 -0.051865552261869924 0.053875705353432224
leaf_weight=1.7358337044715879 5.4786785840988159 0.069350361824035534 3.6051930785179138
leaf_count=13 79 1 27
internal_value=0 0.525203 0.538757
internal_weight=0 5.41038 5.34103
internal_count=120 41 40
shrinkage=0.1


Tree=73
num_leaves=11
num_cat=0
split_feature=3 2 3 1 2 0 3 1 0 0
split_gain=0.968 1.5695 0.186224 0.100785 0.0764966 0.040933 0.04975 0.0510354 1.38778e-17 6.93889e-18
threshold=0.45000000000000007 4.9500000000000011 1.6500000000000001 3.1500000000000008 1.8 6.0500000000000007 1.6500000000000001 2.6500000000000008 6.2500000000000009 5.8500000000000005
decision_type=2 2 2 2 2 2 2 2 2 2
left_child=-1 2 4 8 -2 6 7 -3 -4 -8
right_child=1 5 3 -5 -6 -7 9 -9 -10 -11
leaf_value=-0.051865552261870555 -0.051865552261871256 -0.051865552261869598 -0.051865552261870368 0.053875705353431828 0.053875705353432224 -0.051865552261870562 -0.051865552261870222 0.053875705353431828 -0.051865552261869841 -0.051865552261869841
leaf_weight=2.704664111137391 0.069350361824033757 0.069350361824035978 0.20805108547210679 0.13352566957473755 5.0739754438400269 2.2192115783691406 0.13870072364807129 0.13352566957473755 0.069350361824035645 0.069350361824035645
leaf_count=39 1 1 3 1 38 32 2 1 1 1
internal_value=0 0.171398 0.472743 -0.175062 0.524499 -0.464973 -0.175062 0.177295 -0.518656 -0.518656
internal_weight=0 8.18439 5.55425 0.410927 5.14333 2.63014 0.410927 0.202876 0.277401 0.208051
internal_count=120 81 44 5 39 37 5 2 4 3
shrinkage=0.1


Tree=74
num_leaves=9
num_cat=0
split_feature=2 3 1 3 2 0 1 0
split_gain=2.53488 0.222818 0.0615565 0.0560503 0.0987824 0.0175954 0.0510354 1.38778e-17
threshold=4.8500000000000005 1.6500000000000001 3.1500000000000008 1.6500000000000001 4.9500000000000011 6.0500000000000007 2.6500000000000008 6.9500000000000011
decision_type=2 2 2 2 2 2 2 2
left_child=1 -1 -3 4 -2 6 -6 -7
right_child=3 2 -4 -5 5 7 -8 -9
leaf_value=-0.05186555226187059 -0.051865552261870257 0.053875705353432057 -0.051865552261869841 0.053875705353432224 0.053875705353431828 0.053875705353432037 -0.051865552261869841 0.053875705353431828
leaf_weight=5.270627498626709 0.13870072364807118 0.26705133914947499 0.069350361824035645 4.5398727655410767 0.13352566957473755 0.2670513391494751 0.069350361824035645 0.13352566957473755
leaf_count=76 2 2 1 34 1 2 1 1
internal_value=0 -0.468293 0.320768 0.497107 0.242328 0.417237 0.177295 0.538757
internal_weight=0 5.60703 0.336402 5.28203 0.742154 0.603453 0.202876 0.400577
internal_count=120 79 3 41 7 5 2 3
shrinkage=0.1


Tree=75
num_leaves=6
num_cat=0
split_feature=2 3 0 0 0
split_gain=2.67359 0.0688658 2.22045e-16 2.22045e-16 5.55112e-17
threshold=3.1500000000000004 1.0500000000000003 5.1500000000000012 7.2500000000000009 5.6500000000000012
decision_type=2 2 2 2 2
left_child=1 2 -1 -2 -4
right_child=3 -3 4 -5 -6
leaf_value=0.053486810003879309 -0.051684667023137433 -0.051684667023136711 0.053486810003879282 -0.051684667023137322 0.053486810003879108
leaf_weight=3.6564172804355621 4.6037564128637314 0.063065156340598949 0.97504460811614979 0.3783909380435943 0.24376115202903748
leaf_count=30 73 1 8 6 2
internal_value=0 0.521437 0.534868 -0.516847 0.534868
internal_weight=0 4.93829 4.87522 4.98215 1.21881
internal_count=120 41 40 79 10
shrinkage=0.1


Tree=76
num_leaves=10
num_cat=0
split_feature=3 2 3 1 2 0 3 1 0
split_gain=0.87361 1.41381 0.16737 0.0908959 0.0688195 0.0370482 0.0449258 0.0459701 2.22045e-16
threshold=0.45000000000000007 4.9500000000000011 1.6500000000000001 3.1500000000000008 1.8 6.0500000000000007 1.6500000000000001 2.6500000000000008 6.3500000000000005
decision_type=2 2 2 2 2 2 2 2 2
left_child=-1 2 4 -4 -2 6 7 -3 -6
right_child=1 5 3 -5 8 -7 -8 -9 -10
leaf_value=-0.051684667023137426 -0.051684667023136711 -0.051684667023136358 -0.051684667023137267 0.053486810003878886 0.053486810003879309 -0.051684667023137426 -0.051684667023137169 0.053486810003878886 0.053486810003879282
leaf_weight=2.4595410972833633 0.063065156340598949 0.063065156340599393 0.25226062536239613 0.12188057601451874 3.5345367044210434 2.0180850028991699 0.18919546902179721 0.12188057601451874 1.0969251841306684
leaf_count=39 1 1 4 1 29 32 3 1 9
internal_value=0 0.170382 0.46944 -0.174239 0.52074 -0.463263 -0.174239 0.176241 0.534868
internal_weight=0 7.46089 5.06867 0.374141 4.69453 2.39223 0.374141 0.184946 4.63146
internal_count=120 81 44 5 39 37 5 2 38
shrinkage=0.1


Tree=77
num_leaves=13
num_cat=0
split_feature=2 3 1 3 2 0 1 0 0 0 0 1
split_gain=2.28466 0.201319 0.0554188 0.0502941 0.088996 0.0157965 0.0459701 4.44089e-16 2.22045e-16 2.22045e-16 1.38778e-17 1.38778e-17
threshold=4.8500000000000005 1.6500000000000001 3.1500000000000008 1.6500000000000001 4.9500000000000011 6.0500000000000007 2.6500000000000008 6.2500000000000009 6.5500000000000007 6.3500000000000005 6.9500000000000011 2.9500000000000006
decision_type=2 2 2 2 2 2 2 2 2 2 2 2
left_child=1 8 -3 4 -2 6 -6 -5 9 -1 -7 -10
right_child=3 2 -4 7 5 10 -8 -9 11 -11 -12 -13
leaf_value=-0.051684667023137433 -0.051684667023137079 0.053486810003879129 -0.051684667023136621 0.053486810003879254 0.053486810003878886 0.053486810003879108 -0.051684667023136621 0.053486810003879309 -0.051684667023137079 -0.051684667023137204 0.053486810003878886 -0.051684667023137169
leaf_weight=4.2884306311607361 0.12613031268119801 0.24376115202903736 0.06306515634059906 0.60940288007259358 0.12188057601451874 0.24376115202903748 0.06306515634059906 3.5345367044210434 0.12613031268119801 0.18919546902179707 0.12188057601451874 0.18919546902179721
leaf_count=68 2 2 1 5 1 2 1 29 2 3 1 3
internal_value=0 -0.466576 0.318698 0.493592 0.240832 0.414403 0.176241 0.534868 -0.516847 -0.516847 0.534868 -0.516847
internal_weight=0 5.09978 0.306826 4.82066 0.676718 0.550587 0.184946 4.14394 4.79295 4.47763 0.365642 0.315326
internal_count=120 79 3 41 7 5 2 34 76 71 3 5
shrinkage=0.1


Tree=78
num_leaves=5
num_cat=0
split_feature=2 3 0 0
split_gain=2.41078 0.0619902 2.22045e-16 2.22045e-16
threshold=3.1500000000000004 1.0500000000000003 4.6500000000000012 7.8000000000000016
decision_type=2 2 2 2
left_child=1 2 -1 -2
right_child=3 -3 -4 -5
leaf_value=0.053138719068335276 -0.051521600760940103 -0.051521600760939312 0.053138719068335331 -0.051521600760939312
leaf_weight=0.66693198680877686 4.4711232036352158 0.057322092354297527 3.7792812585830688 0.057322092354297527
leaf_count=6 78 1 34 1
internal_value=0 0.518066 0.531387 -0.515216
internal_weight=0 4.50354 4.44621 4.52845
internal_count=120 41 40 79
shrinkage=0.1


Tree=79
num_leaves=13
num_cat=0
split_feature=3 2 3 1 2 0 3 1 0 0 0 0
split_gain=0.788621 1.27414 0.150526 0.0820033 0.0619487 0.0335306 0.0405771 0.0414262 2.22045e-16 1.11022e-16 5.55112e-17 6.93889e-18
threshold=0.45000000000000007 4.9500000000000011 1.6500000000000001 3.1500000000000008 1.8 6.0500000000000007 1.6500000000000001 2.6500000000000008 6.9500000000000011 4.6500000000000012 7.2500000000000009 5.8500000000000005
decision_type=2 2 2 2 2 2 2 2 2 2 2 2
left_child=9 2 4 -4 -2 6 7 -3 -6 -1 -7 -8
right_child=1 5 3 -5 8 10 11 -9 -10 -11 -12 -13
leaf_value=-0.051521600760939916 -0.051521600760939312 -0.051521600760938917 -0.051521600760939916 0.053138719068334866 0.053138719068335331 -0.051521600760940083 -0.051521600760939659 0.053138719068334866 0.053138719068334922 -0.051521600760940083 -0.051521600760939978 -0.051521600760939215
leaf_weight=0.34393255412578616 0.057322092354297527 0.057322092354297971 0.22928836941719044 0.11115533113479614 4.1127472519874573 1.4903744012117384 0.11464418470859528 0.11115533113479614 0.11115533113479605 1.8916290476918218 0.34393255412578566 0.057322092354297638
leaf_count=6 1 1 4 1 37 26 2 1 1 33 6 1
internal_value=0 0.169471 0.466483 -0.173499 0.517374 -0.461722 -0.173499 0.175295 0.531387 -0.515216 -0.515216 -0.515216
internal_weight=0 6.79642 4.62167 0.340444 4.28122 2.17475 0.340444 0.168477 4.2239 2.23556 1.83431 0.171966
internal_count=120 81 44 5 39 37 5 2 38 39 32 3
shrinkage=0.1


Tree=80
num_leaves=10
num_cat=0
split_feature=2 3 1 3 2 0 1 0 0
split_gain=2.05993 0.181919 0.0499181 0.0451669 0.0802134 0.0141926 0.0414262 2.22045e-16 2.77556e-17
threshold=4.8500000000000005 1.6500000000000001 3.1500000000000008 1.6500000000000001 4.9500000000000011 6.0500000000000007 2.6500000000000008 6.2500000000000009 6.9500000000000011
decision_type=2 2 2 2 2 2 2 2 2
left_child=1 7 -3 4 -2 6 -6 -1 -9
right_child=3 2 -4 -5 5 -7 -8 8 -10
leaf_value=-0.051521600760940089 -0.051521600760939715 0.05313871906833513 -0.051521600760939215 0.053138719068335331 0.053138719068334866 0.053138719068335186 -0.051521600760939215 -0.051521600760940027 -0.051521600760939215
leaf_weight=3.7832580953836441 0.11464418470859516 0.22231066226959215 0.057322092354297638 3.7792812585830688 0.11115533113479614 0.33346599340438843 0.057322092354297638 0.51589883118867852 0.057322092354297638
leaf_count=66 2 2 1 34 1 3 1 9 1
internal_value=0 -0.465029 0.316843 0.490444 0.23949 0.411865 0.175295 -0.515216 -0.515216
internal_weight=0 4.63611 0.279633 4.39587 0.616588 0.501943 0.168477 4.35648 0.573221
internal_count=120 79 3 41 7 5 2 76 10
shrinkage=0.1


Tree=81
num_leaves=5
num_cat=0
split_feature=2 3 0 3
split_gain=2.17455 0.0558299 2.22045e-16 2.22045e-16
threshold=3.1500000000000004 1.0500000000000003 5.4500000000000011 1.0500000000000003
decision_type=2 2 2 2
left_child=1 2 -1 -2
right_child=3 -3 -4 -5
leaf_value=0.052826823701231443 -0.051374555587482031 -0.051374555587481309 0.052826823701231297 -0.051374555587482162
leaf_weight=3.7479324340820312 0.31247674673795689 0.052079457789659382 0.30388641357421864 3.8018004186451435
leaf_count=37 6 1 3 73
internal_value=0 0.515045 0.528268 -0.513746
internal_weight=0 4.1039 4.05182 4.11428
internal_count=120 41 40 79
shrinkage=0.1


Tree=82
num_leaves=18
num_cat=0
split_feature=3 2 3 1 2 0 0 1 0 0 0 0 0 0 0 1 0
split_gain=0.712061 1.14871 0.135459 0.0740021 0.0557926 0.0303461 0.0366556 0.0373464 2.22045e-16 1.11022e-16 2.77556e-17 1.38778e-17 6.93889e-18 6.93889e-18 6.93889e-18 6.93889e-18 3.46945e-18
threshold=0.45000000000000007 4.9500000000000011 1.6500000000000001 3.1500000000000008 1.8 6.0500000000000007 5.9500000000000011 2.6500000000000008 6.9500000000000011 4.8500000000000005 4.6500000000000012 4.5500000000000007 5.8500000000000005 6.2500000000000009 6.1500000000000012 3.5500000000000003 5.5500000000000007
decision_type=2 2 2 2 2 2 2 2 2 2 2 2 2 2 2 2 2
left_child=9 2 4 13 -2 6 12 -8 -6 10 11 -1 -3 14 16 -13 -4
right_child=1 5 3 -5 8 -7 7 -9 -10 -11 -12 15 -14 -15 -16 -17 -18
leaf_value=-0.051374555587481746 -0.051374555587480865 -0.051374555587481746 -0.051374555587481309 0.052826823701230929 0.052826823701231429 -0.051374555587482156 -0.051374555587481198 0.052826823701230929 0.052826823701230985 -0.051374555587482142 -0.051374555587482044 -0.051374555587481691 -0.051374555587481198 -0.051374555587481198 -0.051374555587481198 -0.051374555587481198 -0.051374555587481198
